svm_type c_svc
kernel_type rbf
gamma 0.0078125
nr_class 10
total_sv 494
rho -0.00955474 -0.0133349 -0.073835 -0.125799 -0.124392 -0.132933 -0.107497 -0.115179 -0.110052 0.00645954 -0.07093 -0.105032 -0.0917844 -0.111015 -0.0640648 -0.0465578 -0.0610768 -0.0816946 -0.128467 -0.103957 -0.114169 -0.0875294 -0.116575 -0.106809 -0.0415524 -0.0210898 -0.0411498 -0.0159904 -0.0132726 -0.0336261 -0.00825299 -0.0285387 0.0347061 0.0152606 -0.0138889 -0.0372463 0.0236653 0.0606007 -0.0357195 0.0495752 0.090653 0.00862757 -0.0092143 -0.0422183 -0.050611
label 0 4 9 8 5 3 7 6 2 1
nr_sv 54 57 57 61 48 52 34 53 35 43
SV
0 0 0 0.1160256136466394 0 0 0 0 0 1:1 2:1 3:1 4:1 5:1 6:1 7:0 8:0 9:0 10:0 11:0 12:0 13:1 14:1 15:1 16:1 17:1 18:1 19:1 20:1 21:1 22:1 23:0 24:0 25:0 26:0 27:0 28:0 29:0 30:0 31:0 32:0 33:1 34:1 35:1 36:1 37:1 38:1 39:1 40:0 41:0 42:0 43:0 44:0 45:0 46:0 47:0 48:0 49:0 50:0 51:0 52:1 53:1 54:1 55:1 56:1 57:1 58:0 59:0 60:0 61:1 62:1 63:1 64:1 65:1 66:0 67:0 68:0 69:0 70:1 71:1 72:1 73:1 74:1 75:0 76:0 77:0 78:1 79:1 80:1 81:1 82:1 83:1 84:1 85:0 86:0 87:0 88:0 89:1 90:1 91:1 92:0 93:0 94:0 95:1 96:1 97:1 98:1 99:1 100:1 101:1 102:1 103:1 104:0 105:0 106:0 107:0 108:1 109:1 110:0 111:0 112:0 113:1 114:1 115:1 116:1 117:1 118:1 119:1 120:1 121:1 122:1 123:0 124:0 125:0 126:0 127:1 128:0 129:0 130:0 131:1 132:1 133:1 134:1 135:1 136:1 137:1 138:1 139:1 140:1 141:0 142:0 143:0 144:0 145:0 146:0 147:0 148:1 149:1 150:1 151:1 152:1 153:1 154:1 155:1 156:1 157:1 158:1 159:0 160:0 161:0 162:0 163:0 164:0 165:0 166:0 167:1 168:1 169:1 170:1 171:1 172:1 173:1 174:1 175:1 176:1 177:0 178:0 179:0 180:0 181:0 182:0 183:0 184:0 185:1 186:1 187:1 188:1 189:1 190:1 191:1 192:1 193:1 194:1 195:1 196:0 197:0 198:0 199:0 200:0 201:0 202:0 203:1 204:1 205:1 206:1 207:1 208:1 209:1 210:1 211:1 212:1 213:1 214:0 215:0 216:0 217:0 218:0 219:0 220:1 221:1 222:1 223:1 224:1 225:1 226:1 227:1 228:1 229:1 230:1 231:1 232:0 233:0 234:0 235:0 236:0 237:0 238:1 239:1 240:1 241:1 242:1 243:1 244:1 245:1 246:1 247:1 248:1 249:1 250:0 251:0 252:0 253:0 254:0 255:0 256:1 257:1 258:1 259:1 260:1 261:1 262:1 263:1 264:1 265:1 266:1 267:1 268:0 269:0 270:0 271:0 272:0 273:0 274:1 275:1 276:1 277:1 278:1 279:1 280:1 281:1 282:1 283:1 284:1 285:1 286:0 287:0 288:0 289:0 290:0 291:0 292:1 293:1 294:1 295:1 296:1 297:1 298:1 299:1 300:1 301:1 302:1 303:1 304:0 305:0 306:0 307:0 308:0 309:0 310:1 311:1 312:1 313:1 314:1 315:1 316:1 317:1 318:1 319:1 320:1 321:1 322:0 323:0 324:0 325:1 326:0 327:0 328:0 329:1 330:1 331:1 332:1 333:1 334:1 335:1 336:1 337:1 338:1 339:0 340:0 341:0 342:1 343:1 344:0 345:0 346:0 347:1 348:1 349:1 350:1 351:1 352:1 353:1 354:1 355:1 356:1 357:0 358:0 359:0 360:1 361:1 362:0 363:0 364:0 365:1 366:1 367:1 368:1 369:1 370:1 371:1 372:1 373:1 374:1 375:0 376:0 377:0 378:0 379:1 380:1 381:0 382:0 383:0 384:1 385:1 386:1 387:1 388:1 389:1 390:1 391:1 392:0 393:0 394:0 395:0 396:1 397:1 398:1 399:1 400:0 401:0 402:0 403:1 404:1 405:1 406:1 407:1 408:1 409:0 410:0 411:0 412:0 413:0 414:0 415:1 416:1 417:1 418:0 419:0 420:0 421:0 422:0 423:0 424:0 425:0 426:0 427:0 428:0 429:0 430:0 431:1 432:1 433:1 434:1 435:1 436:1 437:0 438:0 439:0 440:0 441:0 442:0 443:0 444:0 445:0 446:0 447:1 448:1 449:1 450:1 451:1 452:1 453:1 454:1 455:1 456:0 457:0 458:0 459:0 460:0 461:0 462:0 463:1 464:1 465:1 466:1 467:1 468:1 
0.3692220734514917 0.4639289097681782 0.2843231677451096 0.4524049335544239 0.5 0.4863905142900497 0.1692207813303262 0.5 0.4842889286556337 1:1 2:1 3:1 4:1 5:1 6:1 7:0 8:0 9:0 10:0 11:0 12:0 13:1 14:1 15:1 16:1 17:1 18:1 19:1 20:1 21:1 22:1 23:0 24:0 25:0 26:0 27:0 28:0 29:0 30:0 31:0 32:0 33:1 34:1 35:1 36:1 37:1 38:1 39:0 40:0 41:0 42:0 43:0 44:0 45:0 46:0 47:0 48:0 49:0 50:0 51:0 52:1 53:1 54:1 55:0 56:0 57:0 58:0 59:0 60:0 61:0 62:0 63:1 64:1 65:1 66:1 67:0 68:0 69:0 70:0 71:1 72:1 73:0 74:0 75:0 76:0 77:0 78:0 79:1 80:1 81:1 82:1 83:1 84:1 85:0 86:0 87:0 88:0 89:0 90:1 91:0 92:0 93:0 94:0 95:0 96:1 97:1 98:1 99:1 100:1 101:1 102:1 103:1 104:0 105:0 106:0 107:0 108:0 109:1 110:0 111:0 112:0 113:0 114:1 115:1 116:1 117:1 118:1 119:1 120:1 121:1 122:0 123:0 124:0 125:0 126:0 127:1 128:0 129:0 130:0 131:1 132:1 133:1 134:1 135:0 136:0 137:0 138:0 139:0 140:0 141:0 142:0 143:0 144:0 145:0 146:0 147:0 148:1 149:1 150:1 151:1 152:1 153:0 154:0 155:0 156:0 157:0 158:0 159:0 160:0 161:0 162:0 163:0 164:0 165:0 166:1 167:1 168:1 169:1 170:1 171:1 172:1 173:1 174:1 175:1 176:1 177:0 178:0 179:0 180:0 181:0 182:0 183:1 184:1 185:1 186:1 187:1 188:1 189:1 190:1 191:1 192:1 193:1 194:1 195:1 196:0 197:0 198:0 199:0 200:0 201:1 202:1 203:1 204:1 205:1 206:1 207:1 208:1 209:1 210:1 211:1 212:1 213:1 214:0 215:0 216:0 217:0 218:0 219:1 220:1 221:1 222:1 223:1 224:1 225:1 226:1 227:1 228:1 229:1 230:1 231:1 232:0 233:0 234:0 235:0 236:0 237:0 238:1 239:1 240:1 241:1 242:1 243:1 244:1 245:1 246:1 247:1 248:1 249:1 250:0 251:0 252:0 253:0 254:0 255:0 256:1 257:1 258:1 259:1 260:1 261:1 262:1 263:1 264:1 265:1 266:1 267:1 268:0 269:0 270:0 271:0 272:0 273:0 274:1 275:1 276:1 277:1 278:1 279:1 280:1 281:1 282:1 283:1 284:1 285:1 286:0 287:0 288:0 289:0 290:0 291:0 292:1 293:1 294:1 295:1 296:1 297:1 298:1 299:1 300:1 301:1 302:1 303:1 304:0 305:0 306:0 307:1 308:0 309:0 310:1 311:1 312:1 313:1 314:1 315:1 316:1 317:1 318:1 319:1 320:1 321:1 322:0 323:0 324:0 325:1 326:0 327:0 328:1 329:1 330:1 331:1 332:1 333:1 334:1 335:1 336:1 337:1 338:1 339:1 340:0 341:0 342:1 343:1 344:0 345:0 346:0 347:1 348:1 349:1 350:1 351:1 352:1 353:1 354:1 355:1 356:1 357:0 358:0 359:0 360:1 361:1 362:1 363:0 364:0 365:1 366:1 367:1 368:1 369:1 370:1 371:1 372:1 373:1 374:1 375:0 376:0 377:1 378:1 379:1 380:1 381:0 382:0 383:0 384:1 385:1 386:1 387:1 388:1 389:1 390:1 391:1 392:0 393:0 394:0 395:1 396:1 397:1 398:1 399:1 400:0 401:0 402:0 403:1 404:1 405:1 406:1 407:1 408:1 409:0 410:0 411:0 412:0 413:1 414:1 415:1 416:1 417:1 418:0 419:0 420:0 421:0 422:1 423:1 424:1 425:1 426:0 427:0 428:0 429:0 430:0 431:1 432:1 433:1 434:1 435:1 436:1 437:0 438:0 439:0 440:0 441:0 442:0 443:0 444:0 445:0 446:0 447:0 448:1 449:1 450:1 451:1 452:1 453:1 454:1 455:0 456:0 457:0 458:0 459:0 460:0 461:0 462:0 463:1 464:1 465:1 466:1 467:1 468:1 
0 0.340247135369367 0 0 0 0 0 0 0 1:1 2:1 3:1 4:1 5:1 6:1 7:0 8:0 9:0 10:0 11:0 12:0 13:1 14:1 15:1 16:1 17:1 18:1 19:1 20:1 21:1 22:1 23:0 24:0 25:0 26:0 27:0 28:0 29:0 30:0 31:0 32:0 33:1 34:1 35:1 36:1 37:1 38:1 39:1 40:0 41:0 42:0 43:0 44:0 45:1 46:1 47:1 48:0 49:0 50:0 51:0 52:1 53:1 54:0 55:1 56:1 57:0 58:0 59:0 60:0 61:0 62:0 63:1 64:1 65:1 66:1 67:0 68:0 69:0 70:0 71:1 72:0 73:1 74:0 75:0 76:0 77:0 78:0 79:0 80:1 81:1 82:1 83:1 84:1 85:0 86:0 87:0 88:0 89:0 90:0 91:1 92:0 93:0 94:0 95:0 96:1 97:1 98:1 99:1 100:1 101:1 102:1 103:1 104:0 105:0 106:0 107:0 108:0 109:1 110:0 111:0 112:0 113:1 114:1 115:1 116:1 117:1 118:1 119:1 120:1 121:1 122:0 123:0 124:0 125:0 126:0 127:0 128:0 129:0 130:0 131:1 132:1 133:1 134:1 135:1 136:1 137:1 138:1 139:1 140:1 141:0 142:0 143:0 144:0 145:0 146:0 147:0 148:1 149:1 150:1 151:1 152:1 153:1 154:1 155:1 156:1 157:1 158:1 159:1 160:0 161:0 162:0 163:0 164:0 165:0 166:0 167:1 168:1 169:1 170:1 171:1 172:1 173:1 174:1 175:1 176:1 177:1 178:0 179:0 180:0 181:0 182:0 183:0 184:0 185:1 186:1 187:1 188:1 189:1 190:1 191:1 192:1 193:1 194:1 195:1 196:0 197:0 198:0 199:0 200:0 201:0 202:0 203:1 204:1 205:1 206:1 207:1 208:1 209:1 210:1 211:1 212:1 213:1 214:0 215:0 216:0 217:0 218:0 219:0 220:1 221:1 222:1 223:1 224:1 225:1 226:1 227:1 228:1 229:1 230:1 231:1 232:0 233:0 234:0 235:0 236:0 237:0 238:1 239:1 240:1 241:1 242:1 243:1 244:1 245:1 246:1 247:1 248:1 249:1 250:0 251:0 252:0 253:0 254:0 255:0 256:1 257:1 258:1 259:1 260:1 261:1 262:1 263:1 264:1 265:1 266:1 267:0 268:0 269:0 270:0 271:0 272:0 273:0 274:1 275:1 276:1 277:1 278:1 279:1 280:1 281:1 282:1 283:1 284:1 285:0 286:0 287:0 288:0 289:0 290:0 291:0 292:1 293:1 294:1 295:1 296:1 297:1 298:1 299:1 300:1 301:1 302:1 303:0 304:0 305:0 306:0 307:0 308:0 309:0 310:1 311:1 312:1 313:1 314:1 315:1 316:1 317:1 318:1 319:1 320:1 321:1 322:0 323:0 324:0 325:1 326:0 327:0 328:0 329:1 330:1 331:1 332:1 333:1 334:1 335:1 336:1 337:1 338:1 339:0 340:0 341:0 342:0 343:1 344:0 345:0 346:0 347:1 348:1 349:1 350:1 351:1 352:1 353:1 354:1 355:1 356:1 357:0 358:0 359:0 360:1 361:1 362:0 363:0 364:0 365:1 366:1 367:1 368:1 369:1 370:1 371:1 372:1 373:1 374:1 375:0 376:0 377:0 378:1 379:1 380:1 381:0 382:0 383:0 384:1 385:1 386:1 387:1 388:1 389:1 390:1 391:1 392:0 393:0 394:0 395:1 396:1 397:1 398:1 399:1 400:0 401:0 402:0 403:1 404:1 405:1 406:1 407:1 408:1 409:0 410:0 411:0 412:1 413:1 414:1 415:1 416:1 417:1 418:0 419:0 420:0 421:0 422:1 423:1 424:1 425:1 426:0 427:0 428:0 429:0 430:1 431:1 432:1 433:1 434:1 435:1 436:1 437:0 438:0 439:0 440:0 441:0 442:0 443:0 444:0 445:0 446:0 447:1 448:1 449:1 450:1 451:1 452:1 453:1 454:1 455:1 456:1 457:0 458:0 459:0 460:0 461:0 462:0 463:1 464:1 465:1 466:1 467:1 468:1 
0.3781969139710724 0.04549218683346028 0.01234997519112235 0.1643783206445844 0.2419110624395448 0.04538409167397776 0.4080055605026658 0.1232936222815984 0.0348486736308086 1:1 2:1 3:1 4:1 5:1 6:1 7:0 8:0 9:0 10:0 11:0 12:0 13:1 14:1 15:1 16:1 17:1 18:1 19:1 20:1 21:1 22:1 23:0 24:0 25:0 26:0 27:0 28:0 29:0 30:0 31:0 32:0 33:1 34:1 35:1 36:1 37:1 38:1 39:1 40:0 41:0 42:0 43:0 44:1 45:1 46:1 47:1 48:0 49:0 50:0 51:0 52:1 53:1 54:1 55:1 56:1 57:1 58:0 59:0 60:0 61:1 62:1 63:1 64:1 65:1 66:1 67:0 68:0 69:0 70:1 71:1 72:1 73:1 74:1 75:0 76:0 77:0 78:1 79:1 80:1 81:1 82:1 83:1 84:1 85:1 86:0 87:0 88:0 89:1 90:1 91:1 92:0 93:0 94:0 95:1 96:1 97:1 98:1 99:1 100:1 101:1 102:1 103:1 104:0 105:0 106:0 107:0 108:1 109:1 110:0 111:0 112:0 113:1 114:1 115:1 116:1 117:1 118:1 119:1 120:1 121:1 122:0 123:0 124:0 125:0 126:1 127:1 128:0 129:0 130:0 131:1 132:1 133:1 134:1 135:1 136:1 137:1 138:1 139:1 140:0 141:0 142:0 143:0 144:1 145:0 146:0 147:0 148:1 149:1 150:1 151:1 152:1 153:1 154:1 155:1 156:1 157:1 158:0 159:0 160:0 161:0 162:0 163:0 164:0 165:0 166:1 167:1 168:1 169:1 170:1 171:1 172:1 173:1 174:1 175:1 176:1 177:0 178:0 179:0 180:0 181:0 182:0 183:0 184:1 185:1 186:1 187:1 188:1 189:1 190:1 191:1 192:1 193:1 194:1 195:0 196:0 197:0 198:0 199:0 200:0 201:0 202:1 203:1 204:1 205:1 206:1 207:1 208:1 209:1 210:1 211:1 212:1 213:0 214:0 215:0 216:0 217:0 218:0 219:0 220:1 221:1 222:1 223:1 224:1 225:1 226:1 227:1 228:1 229:1 230:1 231:0 232:0 233:0 234:0 235:0 236:0 237:0 238:0 239:1 240:1 241:1 242:1 243:1 244:1 245:1 246:1 247:1 248:1 249:0 250:0 251:0 252:0 253:0 254:0 255:0 256:0 257:1 258:1 259:1 260:1 261:1 262:1 263:1 264:1 265:1 266:1 267:0 268:0 269:0 270:0 271:0 272:0 273:0 274:0 275:1 276:1 277:1 278:1 279:1 280:1 281:1 282:1 283:1 284:1 285:0 286:0 287:0 288:0 289:0 290:0 291:0 292:1 293:1 294:1 295:1 296:1 297:1 298:1 299:1 300:1 301:1 302:1 303:0 304:0 305:0 306:0 307:0 308:0 309:0 310:1 311:1 312:1 313:1 314:1 315:1 316:1 317:1 318:1 319:1 320:1 321:0 322:0 323:0 324:0 325:1 326:0 327:0 328:0 329:1 330:1 331:1 332:1 333:1 334:1 335:1 336:1 337:1 338:1 339:0 340:0 341:0 342:1 343:1 344:0 345:0 346:0 347:1 348:1 349:1 350:1 351:1 352:1 353:1 354:1 355:1 356:0 357:0 358:0 359:0 360:1 361:1 362:0 363:0 364:0 365:1 366:1 367:1 368:1 369:1 370:1 371:1 372:1 373:1 374:0 375:0 376:0 377:0 378:1 379:1 380:1 381:0 382:0 383:0 384:1 385:1 386:1 387:1 388:1 389:1 390:1 391:1 392:0 393:0 394:0 395:1 396:1 397:1 398:1 399:1 400:0 401:0 402:0 403:1 404:1 405:1 406:1 407:1 408:1 409:0 410:0 411:0 412:1 413:1 414:1 415:1 416:1 417:1 418:0 419:0 420:0 421:0 422:1 423:1 424:1 425:1 426:0 427:0 428:0 429:0 430:1 431:1 432:1 433:1 434:1 435:1 436:1 437:0 438:0 439:0 440:0 441:0 442:0 443:0 444:0 445:0 446:0 447:0 448:1 449:1 450:1 451:1 452:1 453:1 454:1 455:1 456:1 457:0 458:0 459:0 460:0 461:0 462:0 463:1 464:1 465:1 466:1 467:1 468:1 
0 0.02958915293591089 0 0 0.008245641205526436 0 0.4561890036961135 0.02977639657554436 0 1:1 2:1 3:1 4:1 5:1 6:1 7:0 8:0 9:0 10:0 11:0 12:0 13:1 14:1 15:1 16:1 17:1 18:1 19:1 20:1 21:1 22:1 23:0 24:0 25:0 26:0 27:0 28:0 29:0 30:0 31:0 32:0 33:1 34:1 35:1 36:1 37:1 38:1 39:1 40:0 41:0 42:0 43:0 44:1 45:1 46:1 47:1 48:0 49:0 50:0 51:0 52:1 53:1 54:1 55:1 56:1 57:1 58:0 59:0 60:0 61:1 62:1 63:1 64:1 65:1 66:1 67:0 68:0 69:0 70:1 71:1 72:1 73:1 74:1 75:0 76:0 77:0 78:1 79:1 80:1 81:1 82:1 83:1 84:1 85:1 86:0 87:0 88:0 89:1 90:1 91:1 92:0 93:0 94:0 95:1 96:1 97:1 98:1 99:1 100:1 101:1 102:1 103:1 104:1 105:0 106:0 107:0 108:1 109:1 110:0 111:0 112:0 113:1 114:1 115:1 116:1 117:1 118:1 119:1 120:1 121:1 122:1 123:0 124:0 125:0 126:1 127:1 128:0 129:0 130:0 131:1 132:1 133:1 134:1 135:1 136:1 137:1 138:1 139:1 140:1 141:0 142:0 143:0 144:1 145:0 146:0 147:0 148:1 149:1 150:1 151:1 152:1 153:1 154:1 155:1 156:1 157:1 158:1 159:1 160:0 161:0 162:0 163:0 164:0 165:0 166:1 167:1 168:1 169:1 170:1 171:1 172:1 173:1 174:1 175:1 176:1 177:0 178:0 179:0 180:0 181:0 182:0 183:0 184:0 185:1 186:1 187:1 188:1 189:1 190:1 191:1 192:1 193:1 194:1 195:0 196:0 197:0 198:0 199:0 200:0 201:0 202:0 203:1 204:1 205:1 206:1 207:1 208:1 209:1 210:1 211:1 212:1 213:0 214:0 215:0 216:0 217:0 218:0 219:0 220:0 221:1 222:1 223:1 224:1 225:1 226:1 227:1 228:1 229:1 230:1 231:1 232:0 233:0 234:0 235:0 236:0 237:0 238:1 239:1 240:1 241:1 242:1 243:1 244:1 245:1 246:1 247:1 248:1 249:1 250:0 251:0 252:0 253:0 254:0 255:0 256:1 257:1 258:1 259:1 260:1 261:1 262:1 263:1 264:1 265:1 266:1 267:1 268:0 269:0 270:0 271:0 272:0 273:0 274:1 275:1 276:1 277:1 278:1 279:1 280:1 281:1 282:1 283:1 284:1 285:1 286:0 287:0 288:0 289:0 290:0 291:0 292:1 293:1 294:1 295:1 296:1 297:1 298:1 299:1 300:1 301:1 302:1 303:1 304:0 305:0 306:0 307:0 308:0 309:0 310:1 311:1 312:1 313:1 314:1 315:1 316:1 317:1 318:1 319:1 320:1 321:1 322:0 323:0 324:0 325:1 326:0 327:0 328:0 329:1 330:1 331:1 332:1 333:1 334:1 335:1 336:1 337:1 338:1 339:0 340:0 341:0 342:0 343:1 344:0 345:0 346:0 347:1 348:1 349:1 350:1 351:1 352:1 353:1 354:1 355:1 356:1 357:0 358:0 359:0 360:1 361:0 362:0 363:0 364:0 365:0 366:1 367:1 368:1 369:1 370:1 371:1 372:1 373:1 374:1 375:0 376:0 377:0 378:1 379:1 380:0 381:0 382:0 383:0 384:1 385:1 386:1 387:1 388:1 389:1 390:1 391:1 392:0 393:0 394:0 395:0 396:1 397:1 398:1 399:0 400:0 401:0 402:0 403:0 404:1 405:1 406:1 407:1 408:0 409:0 410:0 411:0 412:0 413:0 414:1 415:1 416:1 417:1 418:0 419:0 420:0 421:0 422:1 423:1 424:1 425:0 426:0 427:0 428:0 429:0 430:0 431:0 432:0 433:1 434:1 435:1 436:1 437:0 438:0 439:0 440:0 441:0 442:0 443:0 444:0 445:0 446:0 447:1 448:1 449:1 450:1 451:1 452:1 453:1 454:1 455:1 456:1 457:0 458:0 459:0 460:0 461:0 462:0 463:1 464:1 465:1 466:1 467:1 468:1 
0.1310622947566993 0.3397501040541004 0.3760414716918427 0 0.269039031188153 0.08687700924261127 0.2361154580284949 0.06514117299382316 0.003589694436898314 1:1 2:1 3:1 4:1 5:1 6:1 7:0 8:0 9:0 10:0 11:0 12:0 13:1 14:1 15:1 16:1 17:1 18:1 19:1 20:1 21:1 22:1 23:0 24:0 25:0 26:0 27:0 28:0 29:0 30:0 31:0 32:0 33:1 34:1 35:1 36:1 37:1 38:1 39:1 40:0 41:0 42:0 43:0 44:1 45:1 46:1 47:1 48:0 49:0 50:0 51:0 52:1 53:1 54:1 55:1 56:1 57:1 58:0 59:0 60:0 61:1 62:1 63:1 64:1 65:1 66:0 67:0 68:0 69:0 70:0 71:1 72:1 73:1 74:1 75:0 76:0 77:0 78:1 79:1 80:1 81:1 82:1 83:1 84:1 85:1 86:0 87:0 88:0 89:0 90:1 91:1 92:0 93:0 94:0 95:1 96:1 97:1 98:1 99:1 100:1 101:1 102:1 103:1 104:0 105:0 106:0 107:0 108:0 109:0 110:0 111:0 112:0 113:0 114:1 115:1 116:1 117:1 118:1 119:1 120:1 121:1 122:1 123:0 124:0 125:0 126:0 127:0 128:0 129:0 130:0 131:1 132:1 133:1 134:1 135:1 136:1 137:1 138:1 139:1 140:1 141:0 142:0 143:0 144:0 145:0 146:0 147:0 148:0 149:1 150:1 151:1 152:1 153:1 154:1 155:1 156:1 157:1 158:1 159:0 160:0 161:0 162:0 163:0 164:0 165:0 166:1 167:1 168:1 169:1 170:1 171:1 172:1 173:1 174:1 175:1 176:0 177:0 178:0 179:0 180:0 181:0 182:0 183:0 184:1 185:1 186:1 187:1 188:1 189:1 190:1 191:0 192:0 193:0 194:0 195:0 196:0 197:0 198:0 199:0 200:0 201:0 202:1 203:1 204:1 205:1 206:1 207:1 208:1 209:1 210:1 211:1 212:1 213:0 214:0 215:0 216:0 217:0 218:0 219:0 220:0 221:1 222:1 223:1 224:1 225:1 226:0 227:0 228:0 229:1 230:1 231:0 232:0 233:0 234:0 235:0 236:0 237:0 238:0 239:1 240:1 241:1 242:1 243:1 244:1 245:1 246:1 247:1 248:1 249:0 250:0 251:0 252:0 253:0 254:0 255:0 256:0 257:0 258:0 259:0 260:1 261:1 262:1 263:1 264:1 265:1 266:1 267:0 268:0 269:0 270:0 271:0 272:0 273:0 274:0 275:1 276:1 277:1 278:1 279:1 280:1 281:1 282:1 283:1 284:1 285:1 286:0 287:0 288:0 289:0 290:0 291:0 292:0 293:1 294:1 295:1 296:1 297:1 298:1 299:1 300:1 301:1 302:1 303:1 304:0 305:0 306:0 307:0 308:0 309:0 310:0 311:1 312:1 313:1 314:1 315:1 316:1 317:1 318:1 319:1 320:1 321:1 322:0 323:0 324:0 325:0 326:0 327:0 328:0 329:1 330:1 331:1 332:1 333:1 334:1 335:1 336:1 337:1 338:1 339:0 340:0 341:0 342:1 343:1 344:0 345:0 346:0 347:1 348:1 349:1 350:1 351:1 352:1 353:1 354:1 355:1 356:1 357:0 358:0 359:0 360:1 361:1 362:0 363:0 364:0 365:1 366:1 367:1 368:1 369:1 370:1 371:1 372:1 373:1 374:1 375:0 376:0 377:0 378:1 379:1 380:1 381:0 382:0 383:0 384:1 385:1 386:1 387:1 388:1 389:1 390:1 391:1 392:0 393:0 394:0 395:1 396:1 397:1 398:1 399:1 400:0 401:0 402:0 403:1 404:1 405:1 406:1 407:1 408:1 409:0 410:0 411:0 412:1 413:1 414:1 415:1 416:1 417:1 418:0 419:0 420:0 421:0 422:1 423:1 424:1 425:1 426:0 427:0 428:0 429:0 430:1 431:1 432:1 433:1 434:1 435:1 436:1 437:0 438:0 439:0 440:0 441:0 442:0 443:0 444:0 445:0 446:0 447:1 448:1 449:1 450:1 451:1 452:1 453:1 454:1 455:1 456:1 457:0 458:0 459:0 460:0 461:0 462:0 463:1 464:1 465:1 466:1 467:1 468:1 
0.08703034252580733 0.3556583676219575 0.1822640331911712 0.2733954068447037 0.1061692077437617 0.1124567364814786 0.4739568771072245 0.2356436404502654 0.1557849305565383 1:1 2:1 3:1 4:1 5:1 6:1 7:0 8:0 9:0 10:0 11:0 12:0 13:1 14:1 15:1 16:1 17:1 18:1 19:1 20:1 21:1 22:1 23:0 24:0 25:0 26:0 27:0 28:0 29:0 30:0 31:0 32:0 33:1 34:1 35:1 36:1 37:1 38:1 39:1 40:0 41:0 42:0 43:0 44:0 45:0 46:0 47:0 48:0 49:0 50:0 51:0 52:1 53:1 54:1 55:1 56:1 57:1 58:0 59:0 60:0 61:1 62:1 63:1 64:1 65:1 66:1 67:0 68:0 69:0 70:0 71:1 72:1 73:1 74:1 75:0 76:0 77:0 78:1 79:1 80:1 81:1 82:1 83:1 84:1 85:1 86:0 87:0 88:0 89:0 90:1 91:1 92:0 93:0 94:0 95:1 96:1 97:1 98:1 99:1 100:1 101:1 102:1 103:1 104:1 105:0 106:0 107:0 108:1 109:1 110:0 111:0 112:0 113:1 114:1 115:1 116:1 117:1 118:1 119:1 120:1 121:1 122:1 123:0 124:0 125:0 126:1 127:1 128:0 129:0 130:0 131:1 132:1 133:1 134:1 135:1 136:1 137:1 138:1 139:1 140:1 141:0 142:0 143:0 144:1 145:0 146:0 147:0 148:1 149:1 150:1 151:1 152:1 153:1 154:1 155:1 156:1 157:1 158:1 159:0 160:0 161:0 162:0 163:0 164:0 165:0 166:1 167:1 168:1 169:1 170:1 171:1 172:1 173:1 174:1 175:1 176:1 177:1 178:0 179:0 180:0 181:0 182:0 183:0 184:1 185:1 186:1 187:1 188:1 189:1 190:1 191:1 192:1 193:1 194:1 195:1 196:0 197:0 198:0 199:0 200:0 201:0 202:0 203:1 204:0 205:0 206:1 207:1 208:1 209:0 210:0 211:1 212:1 213:0 214:0 215:0 216:0 217:0 218:0 219:0 220:0 221:0 222:0 223:1 224:1 225:1 226:0 227:1 228:1 229:1 230:1 231:0 232:0 233:0 234:0 235:0 236:0 237:0 238:0 239:0 240:1 241:1 242:0 243:0 244:1 245:1 246:1 247:1 248:1 249:0 250:0 251:0 252:0 253:0 254:0 255:0 256:0 257:1 258:1 259:1 260:1 261:1 262:1 263:1 264:1 265:1 266:1 267:1 268:0 269:0 270:0 271:0 272:0 273:0 274:1 275:1 276:1 277:1 278:1 279:1 280:1 281:1 282:1 283:1 284:1 285:1 286:0 287:0 288:0 289:0 290:0 291:0 292:1 293:1 294:1 295:1 296:1 297:1 298:1 299:1 300:1 301:1 302:1 303:1 304:0 305:0 306:0 307:0 308:0 309:0 310:0 311:1 312:1 313:1 314:1 315:1 316:1 317:1 318:1 319:1 320:1 321:1 322:0 323:0 324:0 325:0 326:0 327:0 328:0 329:1 330:1 331:1 332:1 333:1 334:1 335:1 336:1 337:1 338:1 339:0 340:0 341:0 342:1 343:0 344:0 345:0 346:0 347:1 348:1 349:1 350:1 351:1 352:1 353:1 354:1 355:1 356:1 357:0 358:0 359:0 360:1 361:0 362:0 363:0 364:0 365:1 366:1 367:1 368:1 369:1 370:1 371:1 372:1 373:1 374:1 375:0 376:0 377:0 378:1 379:1 380:0 381:0 382:0 383:0 384:1 385:1 386:1 387:1 388:1 389:1 390:1 391:1 392:0 393:0 394:0 395:1 396:1 397:1 398:1 399:0 400:0 401:0 402:0 403:1 404:1 405:1 406:1 407:1 408:1 409:0 410:0 411:0 412:1 413:1 414:1 415:1 416:1 417:1 418:0 419:0 420:0 421:0 422:1 423:1 424:1 425:1 426:0 427:0 428:0 429:0 430:1 431:1 432:1 433:1 434:1 435:1 436:1 437:0 438:0 439:0 440:0 441:0 442:0 443:0 444:0 445:0 446:0 447:1 448:1 449:1 450:1 451:1 452:1 453:1 454:1 455:0 456:0 457:0 458:0 459:0 460:0 461:0 462:0 463:0 464:0 465:1 466:1 467:1 468:1 
0.2120039327870694 0.3994688704563534 0 0.1246153331949905 0.2391301691829247 0.2619365775611922 0 0.3373069175585552 0.309209606887469 1:1 2:1 3:1 4:1 5:1 6:1 7:0 8:0 9:0 10:0 11:0 12:0 13:1 14:1 15:1 16:1 17:1 18:1 19:1 20:1 21:1 22:1 23:0 24:0 25:0 26:0 27:0 28:0 29:0 30:0 31:0 32:0 33:1 34:1 35:1 36:1 37:1 38:1 39:1 40:0 41:0 42:0 43:0 44:1 45:1 46:1 47:0 48:0 49:0 50:0 51:0 52:1 53:1 54:1 55:1 56:1 57:1 58:0 59:0 60:0 61:1 62:1 63:1 64:1 65:1 66:1 67:0 68:0 69:0 70:0 71:0 72:0 73:1 74:1 75:0 76:0 77:0 78:1 79:1 80:1 81:1 82:1 83:1 84:1 85:1 86:0 87:0 88:0 89:0 90:0 91:1 92:0 93:0 94:0 95:1 96:1 97:1 98:1 99:1 100:1 101:1 102:1 103:1 104:0 105:0 106:0 107:0 108:0 109:1 110:0 111:0 112:0 113:1 114:1 115:1 116:1 117:1 118:1 119:1 120:1 121:1 122:1 123:0 124:0 125:0 126:1 127:1 128:0 129:0 130:0 131:1 132:1 133:1 134:1 135:1 136:1 137:1 138:1 139:1 140:1 141:0 142:0 143:0 144:1 145:0 146:0 147:0 148:1 149:1 150:1 151:1 152:1 153:1 154:1 155:1 156:1 157:1 158:1 159:1 160:0 161:0 162:0 163:0 164:0 165:0 166:1 167:1 168:1 169:1 170:1 171:1 172:1 173:1 174:1 175:1 176:1 177:1 178:0 179:0 180:0 181:0 182:0 183:0 184:1 185:1 186:1 187:1 188:1 189:1 190:1 191:1 192:1 193:1 194:1 195:1 196:0 197:0 198:0 199:0 200:0 201:0 202:1 203:1 204:1 205:1 206:1 207:1 208:1 209:1 210:1 211:1 212:1 213:1 214:0 215:0 216:0 217:0 218:0 219:0 220:1 221:1 222:1 223:1 224:1 225:1 226:1 227:1 228:1 229:1 230:1 231:1 232:0 233:0 234:0 235:0 236:0 237:0 238:1 239:1 240:1 241:1 242:1 243:1 244:1 245:1 246:1 247:1 248:1 249:1 250:0 251:0 252:0 253:0 254:0 255:0 256:1 257:1 258:1 259:1 260:1 261:1 262:1 263:1 264:1 265:1 266:1 267:1 268:0 269:0 270:0 271:0 272:0 273:0 274:1 275:1 276:1 277:1 278:1 279:1 280:1 281:1 282:1 283:1 284:1 285:1 286:0 287:0 288:0 289:0 290:0 291:0 292:1 293:1 294:1 295:1 296:1 297:1 298:1 299:1 300:1 301:1 302:1 303:1 304:0 305:0 306:0 307:0 308:0 309:0 310:1 311:1 312:1 313:1 314:1 315:1 316:1 317:1 318:1 319:1 320:1 321:0 322:0 323:0 324:0 325:1 326:0 327:0 328:0 329:1 330:1 331:1 332:1 333:1 334:1 335:1 336:1 337:1 338:0 339:0 340:0 341:0 342:0 343:1 344:0 345:0 346:0 347:1 348:1 349:1 350:1 351:1 352:1 353:1 354:1 355:0 356:0 357:0 358:0 359:0 360:0 361:1 362:0 363:0 364:0 365:1 366:1 367:1 368:1 369:1 370:1 371:1 372:1 373:0 374:0 375:0 376:0 377:0 378:1 379:1 380:1 381:0 382:0 383:0 384:1 385:1 386:1 387:1 388:0 389:0 390:0 391:0 392:0 393:0 394:0 395:1 396:1 397:1 398:1 399:1 400:0 401:0 402:0 403:0 404:0 405:0 406:0 407:0 408:0 409:0 410:0 411:0 412:0 413:1 414:1 415:1 416:1 417:1 418:0 419:0 420:0 421:0 422:0 423:0 424:0 425:0 426:0 427:0 428:0 429:0 430:1 431:1 432:1 433:1 434:1 435:1 436:1 437:0 438:0 439:0 440:0 441:0 442:0 443:0 444:0 445:0 446:0 447:1 448:1 449:1 450:1 451:1 452:1 453:1 454:1 455:1 456:1 457:0 458:0 459:0 460:0 461:0 462:0 463:1 464:1 465:1 466:1 467:1 468:1 
0 0 0 0 0 0 0 0.1534111418067516 0.07042842252322729 1:1 2:1 3:1 4:1 5:1 6:1 7:0 8:0 9:0 10:0 11:0 12:0 13:1 14:1 15:1 16:1 17:1 18:1 19:1 20:1 21:1 22:1 23:0 24:0 25:0 26:0 27:0 28:0 29:0 30:0 31:0 32:0 33:1 34:1 35:1 36:1 37:1 38:1 39:1 40:0 41:0 42:0 43:0 44:1 45:1 46:1 47:1 48:0 49:0 50:0 51:0 52:1 53:1 54:1 55:1 56:1 57:1 58:0 59:0 60:0 61:1 62:1 63:1 64:1 65:1 66:1 67:0 68:0 69:0 70:1 71:1 72:1 73:1 74:1 75:0 76:0 77:0 78:1 79:1 80:1 81:1 82:1 83:1 84:1 85:1 86:0 87:0 88:0 89:1 90:1 91:1 92:0 93:0 94:0 95:1 96:1 97:1 98:1 99:1 100:1 101:1 102:1 103:1 104:1 105:0 106:0 107:0 108:1 109:1 110:0 111:0 112:0 113:1 114:1 115:1 116:1 117:1 118:1 119:1 120:1 121:1 122:1 123:0 124:0 125:0 126:1 127:1 128:0 129:0 130:0 131:1 132:1 133:1 134:1 135:1 136:1 137:1 138:1 139:1 140:1 141:0 142:0 143:0 144:1 145:0 146:0 147:0 148:1 149:1 150:1 151:1 152:1 153:1 154:1 155:1 156:1 157:1 158:1 159:1 160:0 161:0 162:0 163:0 164:0 165:0 166:1 167:1 168:1 169:1 170:1 171:1 172:1 173:1 174:1 175:1 176:1 177:0 178:0 179:0 180:0 181:0 182:0 183:0 184:1 185:1 186:1 187:1 188:1 189:1 190:1 191:1 192:1 193:1 194:1 195:0 196:0 197:0 198:0 199:0 200:0 201:0 202:1 203:1 204:1 205:1 206:1 207:1 208:1 209:1 210:1 211:1 212:1 213:0 214:0 215:0 216:0 217:0 218:0 219:0 220:0 221:1 222:1 223:1 224:1 225:1 226:1 227:1 228:1 229:1 230:1 231:1 232:0 233:0 234:0 235:0 236:0 237:0 238:0 239:1 240:1 241:1 242:1 243:1 244:1 245:1 246:1 247:1 248:1 249:1 250:0 251:0 252:0 253:0 254:0 255:0 256:0 257:0 258:1 259:1 260:1 261:1 262:1 263:1 264:1 265:1 266:1 267:1 268:0 269:0 270:0 271:0 272:0 273:0 274:0 275:1 276:1 277:1 278:1 279:1 280:1 281:1 282:1 283:1 284:1 285:1 286:0 287:0 288:0 289:0 290:0 291:0 292:0 293:1 294:0 295:1 296:1 297:1 298:1 299:1 300:1 301:1 302:1 303:1 304:0 305:0 306:0 307:0 308:0 309:0 310:0 311:1 312:0 313:0 314:1 315:1 316:1 317:1 318:1 319:1 320:1 321:1 322:0 323:0 324:0 325:1 326:0 327:0 328:0 329:1 330:1 331:1 332:1 333:1 334:1 335:1 336:1 337:1 338:1 339:0 340:0 341:0 342:1 343:1 344:0 345:0 346:0 347:1 348:1 349:1 350:1 351:1 352:1 353:1 354:1 355:1 356:1 357:0 358:0 359:0 360:1 361:1 362:0 363:0 364:0 365:1 366:1 367:1 368:1 369:1 370:1 371:1 372:1 373:1 374:1 375:0 376:0 377:0 378:1 379:1 380:1 381:0 382:0 383:0 384:1 385:1 386:1 387:1 388:1 389:0 390:1 391:1 392:0 393:0 394:0 395:1 396:1 397:1 398:1 399:1 400:0 401:0 402:0 403:1 404:1 405:1 406:1 407:0 408:0 409:0 410:0 411:0 412:1 413:1 414:1 415:1 416:1 417:1 418:0 419:0 420:0 421:0 422:1 423:1 424:1 425:0 426:0 427:0 428:0 429:0 430:1 431:1 432:1 433:1 434:1 435:1 436:1 437:0 438:0 439:0 440:0 441:0 442:0 443:0 444:0 445:0 446:0 447:0 448:1 449:1 450:1 451:1 452:1 453:1 454:1 455:1 456:1 457:0 458:0 459:0 460:0 461:0 462:0 463:0 464:0 465:0 466:1 467:1 468:1 
0.1652903492170265 0.4592881607720647 0.3609558147323813 0.3775791241550499 0.08760178404024331 0.2698167006024695 0.5 0.1518932987638197 0.147243979416909 1:1 2:1 3:1 4:1 5:1 6:1 7:0 8:0 9:0 10:0 11:0 12:0 13:1 14:1 15:1 16:1 17:1 18:1 19:1 20:1 21:1 22:1 23:0 24:0 25:0 26:0 27:0 28:0 29:0 30:0 31:0 32:0 33:1 34:1 35:1 36:1 37:1 38:1 39:1 40:0 41:0 42:0 43:0 44:0 45:1 46:1 47:0 48:0 49:0 50:0 51:0 52:1 53:1 54:1 55:1 56:1 57:1 58:0 59:0 60:0 61:0 62:1 63:1 64:1 65:1 66:1 67:0 68:0 69:0 70:1 71:1 72:1 73:1 74:1 75:0 76:0 77:0 78:0 79:1 80:1 81:1 82:1 83:1 84:1 85:1 86:0 87:0 88:0 89:1 90:1 91:1 92:1 93:0 94:0 95:0 96:1 97:1 98:1 99:1 100:1 101:1 102:1 103:1 104:1 105:0 106:0 107:0 108:1 109:1 110:0 111:0 112:0 113:0 114:0 115:0 116:1 117:1 118:1 119:1 120:1 121:1 122:1 123:0 124:0 125:0 126:1 127:1 128:0 129:0 130:0 131:0 132:0 133:1 134:1 135:1 136:1 137:1 138:1 139:1 140:1 141:0 142:0 143:0 144:0 145:1 146:0 147:0 148:0 149:0 150:0 151:1 152:1 153:1 154:1 155:1 156:1 157:0 158:0 159:0 160:0 161:0 162:0 163:0 164:0 165:0 166:0 167:1 168:0 169:1 170:1 171:1 172:1 173:1 174:0 175:0 176:0 177:0 178:0 179:0 180:0 181:0 182:0 183:0 184:0 185:1 186:1 187:1 188:1 189:1 190:1 191:1 192:1 193:1 194:1 195:0 196:0 197:0 198:0 199:0 200:0 201:0 202:0 203:1 204:1 205:1 206:1 207:1 208:1 209:1 210:1 211:1 212:1 213:1 214:0 215:0 216:1 217:0 218:0 219:0 220:0 221:1 222:1 223:1 224:1 225:1 226:1 227:1 228:1 229:1 230:1 231:1 232:0 233:0 234:0 235:0 236:0 237:0 238:0 239:1 240:1 241:1 242:1 243:1 244:1 245:1 246:1 247:1 248:1 249:0 250:0 251:0 252:0 253:0 254:0 255:0 256:1 257:1 258:1 259:1 260:1 261:1 262:1 263:1 264:1 265:1 266:1 267:0 268:0 269:0 270:0 271:0 272:0 273:0 274:1 275:1 276:1 277:1 278:1 279:1 280:1 281:1 282:1 283:1 284:1 285:0 286:0 287:0 288:0 289:0 290:0 291:0 292:0 293:1 294:1 295:1 296:1 297:1 298:1 299:1 300:1 301:1 302:1 303:1 304:0 305:0 306:0 307:0 308:0 309:0 310:0 311:1 312:1 313:1 314:1 315:1 316:1 317:1 318:1 319:1 320:1 321:1 322:0 323:0 324:1 325:0 326:0 327:0 328:0 329:1 330:1 331:1 332:1 333:1 334:1 335:1 336:1 337:1 338:1 339:1 340:0 341:0 342:1 343:0 344:0 345:0 346:0 347:1 348:1 349:1 350:1 351:1 352:1 353:1 354:1 355:1 356:1 357:0 358:0 359:0 360:1 361:1 362:0 363:0 364:0 365:1 366:1 367:1 368:1 369:1 370:1 371:1 372:1 373:1 374:1 375:0 376:0 377:0 378:1 379:1 380:0 381:0 382:0 383:0 384:1 385:1 386:1 387:1 388:1 389:1 390:1 391:1 392:1 393:0 394:0 395:1 396:1 397:1 398:1 399:0 400:0 401:0 402:0 403:1 404:1 405:1 406:1 407:1 408:1 409:1 410:0 411:0 412:1 413:1 414:1 415:1 416:1 417:0 418:0 419:0 420:0 421:0 422:1 423:1 424:1 425:1 426:1 427:0 428:0 429:1 430:1 431:1 432:1 433:1 434:1 435:1 436:0 437:0 438:0 439:0 440:0 441:0 442:0 443:0 444:0 445:0 446:1 447:1 448:1 449:1 450:1 451:1 452:1 453:1 454:1 455:1 456:1 457:0 458:0 459:0 460:0 461:0 462:1 463:1 464:1 465:1 466:1 467:1 468:1 
0 0.4089049929820278 0.3081975946872348 0.2823287525572143 0.5 0.1233861733580066 0.1061909918676433 0.1891744970591375 0.03775020761046781 1:1 2:1 3:1 4:1 5:1 6:1 7:0 8:0 9:0 10:0 11:0 12:0 13:0 14:0 15:1 16:1 17:1 18:1 19:1 20:1 21:1 22:1 23:0 24:0 25:0 26:0 27:0 28:0 29:0 30:0 31:0 32:0 33:0 34:1 35:1 36:1 37:1 38:1 39:1 40:0 41:0 42:0 43:0 44:1 45:1 46:1 47:1 48:0 49:0 50:0 51:0 52:0 53:0 54:0 55:1 56:1 57:1 58:0 59:0 60:0 61:1 62:1 63:1 64:1 65:1 66:1 67:0 68:0 69:0 70:0 71:1 72:1 73:1 74:1 75:0 76:0 77:0 78:1 79:1 80:1 81:1 82:1 83:1 84:1 85:1 86:0 87:0 88:0 89:0 90:1 91:1 92:0 93:0 94:0 95:1 96:1 97:1 98:1 99:1 100:1 101:1 102:1 103:1 104:1 105:0 106:0 107:0 108:1 109:1 110:0 111:0 112:0 113:1 114:1 115:1 116:1 117:1 118:1 119:1 120:1 121:1 122:1 123:0 124:0 125:0 126:1 127:1 128:0 129:0 130:0 131:1 132:1 133:1 134:1 135:1 136:1 137:1 138:1 139:1 140:1 141:0 142:0 143:0 144:1 145:0 146:0 147:0 148:1 149:1 150:1 151:1 152:1 153:1 154:1 155:1 156:1 157:1 158:1 159:1 160:0 161:0 162:0 163:0 164:0 165:0 166:1 167:1 168:1 169:1 170:1 171:1 172:1 173:1 174:1 175:1 176:1 177:1 178:0 179:0 180:0 181:0 182:0 183:0 184:1 185:1 186:1 187:1 188:1 189:1 190:1 191:1 192:1 193:1 194:1 195:1 196:0 197:0 198:0 199:0 200:0 201:0 202:1 203:1 204:1 205:1 206:1 207:1 208:1 209:1 210:1 211:1 212:1 213:1 214:0 215:0 216:0 217:0 218:0 219:0 220:1 221:1 222:1 223:1 224:1 225:0 226:0 227:0 228:1 229:1 230:1 231:0 232:0 233:0 234:0 235:0 236:0 237:0 238:0 239:1 240:1 241:1 242:1 243:0 244:0 245:1 246:1 247:1 248:1 249:0 250:0 251:0 252:0 253:0 254:0 255:0 256:0 257:1 258:1 259:1 260:0 261:0 262:0 263:1 264:1 265:1 266:1 267:0 268:0 269:0 270:0 271:0 272:0 273:0 274:0 275:1 276:1 277:1 278:1 279:1 280:1 281:1 282:1 283:1 284:1 285:1 286:0 287:0 288:0 289:0 290:0 291:0 292:1 293:1 294:1 295:1 296:1 297:1 298:1 299:1 300:1 301:1 302:1 303:1 304:0 305:0 306:0 307:0 308:0 309:0 310:1 311:1 312:1 313:1 314:1 315:1 316:1 317:1 318:1 319:1 320:1 321:1 322:0 323:0 324:0 325:1 326:0 327:0 328:0 329:1 330:1 331:1 332:1 333:1 334:1 335:1 336:1 337:1 338:1 339:0 340:0 341:0 342:1 343:1 344:0 345:0 346:0 347:1 348:1 349:1 350:1 351:1 352:1 353:1 354:1 355:1 356:1 357:0 358:0 359:0 360:1 361:1 362:0 363:0 364:0 365:1 366:1 367:1 368:1 369:1 370:1 371:1 372:1 373:1 374:1 375:0 376:0 377:0 378:0 379:1 380:1 381:0 382:0 383:0 384:1 385:1 386:1 387:1 388:1 389:1 390:1 391:1 392:0 393:0 394:0 395:0 396:1 397:1 398:1 399:1 400:0 401:0 402:0 403:1 404:1 405:1 406:1 407:1 408:0 409:0 410:0 411:0 412:0 413:1 414:0 415:1 416:1 417:1 418:0 419:0 420:0 421:0 422:0 423:1 424:1 425:0 426:0 427:0 428:0 429:0 430:1 431:1 432:1 433:1 434:1 435:1 436:1 437:0 438:0 439:0 440:0 441:0 442:0 443:0 444:0 445:0 446:0 447:0 448:1 449:1 450:1 451:1 452:1 453:1 454:1 455:1 456:0 457:0 458:0 459:0 460:0 461:0 462:0 463:0 464:1 465:1 466:1 467:1 468:1 
0 0.1367771925607904 0.02593509196689589 0.260895116299132 0 0 0.2473309888425459 0 0 1:1 2:1 3:0 4:0 5:1 6:1 7:0 8:0 9:0 10:0 11:0 12:0 13:0 14:0 15:0 16:1 17:1 18:1 19:1 20:0 21:0 22:0 23:0 24:0 25:0 26:0 27:0 28:0 29:0 30:0 31:0 32:0 33:0 34:0 35:0 36:1 37:1 38:0 39:0 40:0 41:0 42:0 43:0 44:0 45:0 46:0 47:0 48:0 49:0 50:0 51:0 52:0 53:0 54:0 55:1 56:1 57:1 58:1 59:0 60:0 61:0 62:0 63:0 64:1 65:1 66:1 67:1 68:0 69:0 70:0 71:0 72:0 73:1 74:1 75:1 76:0 77:0 78:0 79:0 80:1 81:1 82:1 83:1 84:1 85:1 86:1 87:1 88:0 89:0 90:0 91:1 92:1 93:1 94:0 95:0 96:0 97:1 98:1 99:1 100:1 101:1 102:1 103:1 104:1 105:1 106:1 107:0 108:0 109:1 110:1 111:1 112:0 113:0 114:0 115:0 116:1 117:1 118:1 119:1 120:1 121:1 122:1 123:1 124:1 125:0 126:0 127:1 128:1 129:0 130:0 131:0 132:0 133:0 134:1 135:1 136:1 137:1 138:1 139:1 140:1 141:1 142:1 143:0 144:0 145:1 146:1 147:0 148:0 149:0 150:0 151:0 152:0 153:1 154:1 155:1 156:1 157:1 158:1 159:1 160:1 161:1 162:0 163:1 164:0 165:0 166:0 167:0 168:0 169:1 170:1 171:1 172:1 173:1 174:1 175:1 176:1 177:1 178:1 179:1 180:0 181:1 182:1 183:0 184:0 185:0 186:0 187:1 188:1 189:1 190:1 191:1 192:1 193:1 194:1 195:1 196:1 197:0 198:0 199:1 200:1 201:0 202:0 203:0 204:1 205:1 206:1 207:1 208:1 209:1 210:1 211:1 212:1 213:1 214:0 215:0 216:0 217:1 218:1 219:0 220:0 221:0 222:1 223:1 224:1 225:1 226:1 227:1 228:1 229:1 230:1 231:1 232:0 233:0 234:0 235:1 236:1 237:0 238:0 239:0 240:0 241:1 242:1 243:1 244:1 245:1 246:1 247:1 248:1 249:0 250:0 251:0 252:0 253:1 254:0 255:0 256:0 257:0 258:0 259:1 260:1 261:1 262:1 263:1 264:0 265:0 266:0 267:0 268:1 269:0 270:0 271:1 272:0 273:0 274:0 275:0 276:0 277:1 278:1 279:1 280:1 281:1 282:1 283:1 284:1 285:1 286:1 287:1 288:0 289:1 290:0 291:0 292:0 293:0 294:1 295:1 296:1 297:1 298:1 299:1 300:1 301:1 302:1 303:1 304:1 305:1 306:0 307:1 308:1 309:0 310:0 311:0 312:0 313:1 314:1 315:1 316:1 317:1 318:1 319:1 320:1 321:1 322:1 323:1 324:0 325:1 326:1 327:0 328:0 329:0 330:0 331:1 332:1 333:1 334:1 335:1 336:1 337:1 338:1 339:1 340:1 341:0 342:0 343:1 344:1 345:0 346:0 347:0 348:0 349:1 350:1 351:1 352:1 353:1 354:1 355:1 356:1 357:1 358:1 359:0 360:0 361:1 362:1 363:1 364:0 365:0 366:0 367:1 368:1 369:1 370:1 371:1 372:1 373:1 374:1 375:1 376:1 377:0 378:0 379:1 380:1 381:1 382:1 383:0 384:0 385:0 386:1 387:1 388:1 389:1 390:1 391:1 392:1 393:1 394:0 395:0 396:0 397:1 398:1 399:1 400:1 401:1 402:0 403:0 404:0 405:1 406:1 407:1 408:1 409:1 410:1 411:0 412:0 413:0 414:1 415:1 416:1 417:1 418:1 419:1 420:0 421:0 422:0 423:0 424:1 425:1 426:1 427:1 428:0 429:0 430:0 431:0 432:1 433:1 434:1 435:1 436:1 437:1 438:1 439:0 440:0 441:0 442:0 443:0 444:0 445:0 446:0 447:0 448:0 449:1 450:1 451:1 452:1 453:1 454:1 455:1 456:1 457:1 458:1 459:0 460:0 461:0 462:0 463:0 464:0 465:1 466:1 467:1 468:1 
0.06831033430772017 0 0.3408317643425501 0.1203289092388417 0.07455544926230963 0.01617980394521659 0.5 0.07028670723081011 0 1:1 2:1 3:1 4:1 5:1 6:1 7:1 8:0 9:0 10:0 11:0 12:0 13:0 14:1 15:1 16:1 17:1 18:1 19:1 20:1 21:1 22:1 23:1 24:0 25:0 26:0 27:0 28:0 29:0 30:0 31:0 32:0 33:0 34:1 35:1 36:1 37:1 38:1 39:1 40:1 41:0 42:0 43:0 44:0 45:0 46:1 47:1 48:0 49:0 50:0 51:0 52:0 53:1 54:1 55:1 56:1 57:1 58:0 59:0 60:0 61:0 62:0 63:0 64:1 65:1 66:0 67:0 68:0 69:0 70:0 71:0 72:0 73:1 74:1 75:0 76:0 77:0 78:0 79:0 80:0 81:0 82:1 83:1 84:1 85:0 86:0 87:0 88:0 89:0 90:0 91:1 92:1 93:0 94:0 95:0 96:0 97:1 98:1 99:1 100:1 101:1 102:1 103:1 104:1 105:0 106:0 107:0 108:0 109:1 110:1 111:0 112:0 113:0 114:1 115:1 116:1 117:1 118:1 119:1 120:1 121:1 122:1 123:1 124:0 125:0 126:0 127:1 128:0 129:0 130:0 131:0 132:1 133:1 134:1 135:1 136:1 137:1 138:1 139:1 140:1 141:0 142:0 143:0 144:0 145:0 146:0 147:0 148:0 149:0 150:1 151:1 152:1 153:1 154:1 155:1 156:1 157:1 158:1 159:1 160:0 161:0 162:0 163:0 164:0 165:0 166:0 167:0 168:0 169:0 170:0 171:0 172:0 173:0 174:1 175:1 176:0 177:0 178:0 179:0 180:0 181:0 182:0 183:0 184:0 185:0 186:0 187:0 188:0 189:0 190:0 191:0 192:0 193:0 194:0 195:0 196:0 197:0 198:0 199:1 200:0 201:0 202:0 203:0 204:1 205:1 206:1 207:1 208:1 209:1 210:1 211:0 212:0 213:0 214:0 215:0 216:0 217:1 218:0 219:0 220:0 221:1 222:1 223:1 224:1 225:1 226:1 227:1 228:1 229:1 230:1 231:1 232:0 233:0 234:0 235:1 236:0 237:0 238:0 239:1 240:1 241:1 242:1 243:1 244:1 245:1 246:1 247:1 248:1 249:1 250:1 251:0 252:0 253:1 254:0 255:0 256:0 257:1 258:1 259:1 260:1 261:1 262:1 263:1 264:1 265:1 266:1 267:1 268:1 269:0 270:0 271:1 272:0 273:0 274:0 275:1 276:1 277:1 278:1 279:1 280:1 281:1 282:1 283:1 284:1 285:1 286:1 287:0 288:0 289:1 290:0 291:0 292:0 293:1 294:1 295:1 296:1 297:1 298:1 299:1 300:1 301:1 302:1 303:1 304:1 305:0 306:0 307:1 308:0 309:0 310:0 311:1 312:1 313:1 314:1 315:1 316:1 317:1 318:1 319:1 320:1 321:1 322:0 323:0 324:0 325:1 326:1 327:0 328:0 329:0 330:1 331:1 332:1 333:1 334:1 335:1 336:1 337:1 338:1 339:0 340:0 341:0 342:0 343:1 344:0 345:0 346:0 347:0 348:0 349:1 350:1 351:1 352:1 353:1 354:1 355:1 356:1 357:0 358:0 359:0 360:0 361:1 362:1 363:0 364:0 365:0 366:0 367:1 368:1 369:1 370:1 371:1 372:1 373:1 374:1 375:1 376:0 377:0 378:0 379:1 380:1 381:1 382:0 383:0 384:0 385:1 386:1 387:1 388:1 389:1 390:1 391:1 392:1 393:0 394:0 395:0 396:1 397:1 398:1 399:1 400:1 401:0 402:0 403:0 404:1 405:1 406:1 407:1 408:1 409:1 410:0 411:0 412:0 413:1 414:1 415:1 416:1 417:1 418:1 419:0 420:0 421:0 422:0 423:1 424:1 425:1 426:1 427:0 428:0 429:0 430:0 431:1 432:1 433:1 434:1 435:1 436:1 437:1 438:0 439:0 440:0 441:0 442:0 443:0 444:0 445:0 446:0 447:0 448:1 449:1 450:1 451:1 452:1 453:1 454:1 455:1 456:1 457:1 458:0 459:0 460:0 461:0 462:0 463:0 464:1 465:1 466:1 467:1 468:1 
0 0.3270070130406597 0.07216066016960938 0.1823572220441136 0.3927691967609825 0.2500573911798945 0 0.1112089008453405 0.01794829328400042 1:0 2:0 3:0 4:0 5:0 6:0 7:0 8:0 9:0 10:0 11:0 12:0 13:0 14:1 15:1 16:1 17:1 18:1 19:1 20:1 21:1 22:0 23:0 24:0 25:0 26:0 27:0 28:0 29:0 30:0 31:0 32:0 33:0 34:1 35:1 36:1 37:1 38:1 39:1 40:0 41:0 42:0 43:0 44:0 45:0 46:0 47:0 48:0 49:0 50:0 51:0 52:0 53:0 54:0 55:1 56:1 57:1 58:1 59:0 60:0 61:0 62:1 63:1 64:1 65:1 66:1 67:1 68:0 69:0 70:0 71:0 72:0 73:1 74:1 75:1 76:0 77:0 78:0 79:1 80:1 81:1 82:1 83:1 84:1 85:1 86:1 87:0 88:0 89:0 90:0 91:1 92:1 93:0 94:0 95:0 96:1 97:1 98:1 99:1 100:1 101:1 102:1 103:1 104:1 105:1 106:0 107:0 108:0 109:1 110:1 111:0 112:0 113:0 114:1 115:1 116:1 117:1 118:1 119:1 120:1 121:1 122:1 123:1 124:0 125:0 126:0 127:1 128:1 129:0 130:0 131:0 132:1 133:1 134:1 135:1 136:1 137:1 138:1 139:1 140:1 141:1 142:0 143:0 144:0 145:1 146:0 147:0 148:0 149:1 150:1 151:1 152:1 153:1 154:1 155:1 156:1 157:1 158:1 159:1 160:1 161:0 162:0 163:1 164:0 165:0 166:0 167:1 168:1 169:1 170:1 171:1 172:1 173:1 174:1 175:1 176:1 177:1 178:1 179:0 180:0 181:1 182:0 183:0 184:0 185:1 186:1 187:1 188:1 189:1 190:1 191:1 192:1 193:1 194:1 195:1 196:1 197:0 198:0 199:1 200:0 201:0 202:0 203:1 204:1 205:1 206:1 207:1 208:1 209:1 210:1 211:1 212:1 213:1 214:1 215:0 216:0 217:1 218:0 219:0 220:0 221:1 222:1 223:1 224:1 225:1 226:1 227:1 228:1 229:1 230:1 231:1 232:0 233:0 234:0 235:0 236:0 237:0 238:0 239:1 240:1 241:1 242:1 243:1 244:1 245:0 246:0 247:0 248:0 249:0 250:0 251:0 252:0 253:0 254:0 255:0 256:0 257:0 258:1 259:0 260:0 261:0 262:0 263:0 264:0 265:0 266:0 267:0 268:0 269:0 270:0 271:0 272:0 273:0 274:0 275:0 276:1 277:1 278:1 279:1 280:1 281:1 282:1 283:1 284:1 285:1 286:0 287:0 288:0 289:0 290:0 291:0 292:0 293:0 294:1 295:1 296:1 297:1 298:1 299:1 300:1 301:1 302:1 303:1 304:1 305:0 306:0 307:1 308:0 309:0 310:0 311:0 312:1 313:1 314:1 315:1 316:1 317:1 318:1 319:1 320:1 321:1 322:1 323:0 324:0 325:1 326:1 327:0 328:0 329:0 330:1 331:1 332:1 333:1 334:1 335:1 336:1 337:1 338:1 339:1 340:0 341:0 342:0 343:1 344:1 345:0 346:0 347:0 348:1 349:1 350:1 351:1 352:1 353:1 354:1 355:1 356:1 357:1 358:0 359:0 360:0 361:1 362:1 363:0 364:0 365:0 366:1 367:1 368:1 369:1 370:1 371:1 372:1 373:1 374:1 375:1 376:0 377:0 378:0 379:1 380:1 381:1 382:0 383:0 384:0 385:1 386:1 387:1 388:1 389:1 390:1 391:1 392:1 393:0 394:0 395:0 396:1 397:1 398:1 399:1 400:1 401:0 402:0 403:0 404:1 405:1 406:1 407:1 408:1 409:1 410:0 411:0 412:0 413:1 414:1 415:1 416:1 417:1 418:1 419:0 420:0 421:0 422:0 423:1 424:1 425:1 426:1 427:0 428:0 429:0 430:0 431:1 432:1 433:1 434:1 435:1 436:1 437:1 438:0 439:0 440:0 441:0 442:0 443:0 444:0 445:0 446:0 447:0 448:1 449:1 450:1 451:1 452:1 453:1 454:1 455:1 456:1 457:1 458:0 459:0 460:0 461:0 462:0 463:0 464:1 465:1 466:1 467:1 468:1 
0 0 0 0 0 0 0 0.0470737785120378 0 1:1 2:1 3:1 4:1 5:1 6:0 7:0 8:0 9:0 10:0 11:0 12:0 13:0 14:1 15:1 16:1 17:1 18:1 19:1 20:1 21:1 22:1 23:0 24:0 25:0 26:0 27:0 28:0 29:0 30:0 31:0 32:0 33:0 34:1 35:1 36:1 37:1 38:1 39:1 40:1 41:0 42:0 43:0 44:0 45:1 46:1 47:1 48:1 49:0 50:0 51:0 52:0 53:1 54:1 55:1 56:1 57:1 58:1 59:0 60:0 61:0 62:1 63:1 64:1 65:1 66:1 67:1 68:0 69:0 70:0 71:0 72:1 73:1 74:1 75:1 76:0 77:0 78:0 79:1 80:1 81:1 82:1 83:1 84:1 85:1 86:1 87:0 88:0 89:0 90:1 91:1 92:1 93:0 94:0 95:0 96:1 97:1 98:1 99:1 100:1 101:1 102:1 103:1 104:1 105:1 106:0 107:0 108:0 109:1 110:1 111:0 112:0 113:0 114:1 115:1 116:1 117:1 118:1 119:1 120:1 121:1 122:1 123:1 124:0 125:0 126:0 127:1 128:1 129:0 130:0 131:0 132:1 133:1 134:1 135:1 136:1 137:1 138:1 139:1 140:1 141:1 142:0 143:0 144:0 145:1 146:0 147:0 148:0 149:1 150:1 151:1 152:1 153:1 154:1 155:1 156:1 157:1 158:1 159:1 160:1 161:0 162:0 163:1 164:0 165:0 166:0 167:1 168:1 169:1 170:1 171:1 172:1 173:1 174:1 175:1 176:1 177:1 178:1 179:0 180:0 181:0 182:0 183:0 184:0 185:0 186:1 187:1 188:1 189:1 190:1 191:1 192:1 193:1 194:1 195:1 196:1 197:0 198:0 199:0 200:0 201:0 202:0 203:0 204:1 205:1 206:1 207:1 208:1 209:1 210:1 211:1 212:1 213:1 214:1 215:0 216:0 217:0 218:0 219:0 220:0 221:0 222:1 223:1 224:1 225:1 226:1 227:1 228:1 229:1 230:1 231:1 232:0 233:0 234:0 235:1 236:0 237:0 238:0 239:1 240:1 241:1 242:1 243:1 244:1 245:1 246:1 247:1 248:1 249:1 250:0 251:0 252:0 253:0 254:0 255:0 256:0 257:1 258:1 259:1 260:1 261:1 262:1 263:1 264:1 265:1 266:1 267:1 268:1 269:0 270:0 271:0 272:0 273:0 274:0 275:0 276:1 277:1 278:1 279:1 280:1 281:1 282:1 283:1 284:1 285:1 286:0 287:0 288:0 289:0 290:0 291:0 292:0 293:0 294:1 295:1 296:1 297:1 298:1 299:1 300:1 301:1 302:1 303:1 304:0 305:0 306:0 307:1 308:0 309:0 310:0 311:0 312:1 313:1 314:1 315:1 316:1 317:1 318:1 319:1 320:1 321:1 322:0 323:0 324:0 325:1 326:1 327:0 328:0 329:0 330:1 331:1 332:1 333:1 334:1 335:1 336:1 337:1 338:1 339:1 340:0 341:0 342:0 343:1 344:1 345:0 346:0 347:0 348:1 349:1 350:1 351:1 352:1 353:1 354:1 355:1 356:1 357:1 358:0 359:0 360:0 361:1 362:1 363:0 364:0 365:0 366:1 367:1 368:1 369:1 370:1 371:1 372:1 373:1 374:1 375:1 376:0 377:0 378:0 379:1 380:1 381:1 382:0 383:0 384:0 385:1 386:1 387:1 388:1 389:1 390:1 391:1 392:1 393:0 394:0 395:0 396:0 397:1 398:1 399:1 400:1 401:0 402:0 403:0 404:1 405:1 406:1 407:1 408:1 409:0 410:0 411:0 412:0 413:0 414:0 415:1 416:1 417:1 418:1 419:0 420:0 421:0 422:0 423:0 424:0 425:0 426:0 427:0 428:0 429:0 430:0 431:0 432:1 433:1 434:1 435:1 436:0 437:0 438:0 439:0 440:0 441:0 442:0 443:0 444:0 445:0 446:0 447:0 448:0 449:0 450:1 451:0 452:0 453:0 454:0 455:0 456:0 457:0 458:0 459:0 460:0 461:0 462:0 463:0 464:0 465:0 466:1 467:1 468:1 
0.08227686670483987 0.06809960891026544 0 0 0.08692996022987774 0 0.06556415628968297 0.05269669475633961 0.1034831086580316 1:1 2:1 3:1 4:1 5:1 6:1 7:0 8:0 9:0 10:0 11:0 12:0 13:0 14:1 15:1 16:1 17:1 18:1 19:1 20:1 21:1 22:1 23:1 24:0 25:0 26:0 27:0 28:0 29:0 30:0 31:0 32:0 33:0 34:1 35:1 36:1 37:0 38:0 39:1 40:1 41:0 42:0 43:0 44:0 45:1 46:1 47:1 48:1 49:0 50:0 51:0 52:0 53:1 54:1 55:0 56:0 57:0 58:0 59:0 60:0 61:0 62:0 63:1 64:1 65:1 66:1 67:1 68:0 69:0 70:0 71:1 72:1 73:1 74:1 75:0 76:0 77:0 78:0 79:0 80:0 81:0 82:1 83:1 84:1 85:1 86:1 87:0 88:0 89:0 90:1 91:1 92:1 93:0 94:0 95:0 96:0 97:1 98:0 99:0 100:0 101:0 102:0 103:0 104:0 105:0 106:0 107:0 108:0 109:1 110:1 111:0 112:0 113:0 114:1 115:1 116:1 117:1 118:1 119:0 120:0 121:0 122:0 123:0 124:0 125:0 126:0 127:1 128:1 129:0 130:0 131:0 132:1 133:1 134:1 135:1 136:1 137:1 138:1 139:1 140:0 141:0 142:0 143:0 144:0 145:1 146:0 147:0 148:0 149:1 150:1 151:1 152:1 153:1 154:1 155:1 156:1 157:1 158:1 159:1 160:0 161:0 162:0 163:1 164:0 165:0 166:0 167:1 168:1 169:1 170:1 171:1 172:1 173:1 174:1 175:1 176:1 177:1 178:1 179:0 180:0 181:1 182:0 183:0 184:0 185:1 186:1 187:1 188:1 189:1 190:1 191:1 192:1 193:1 194:1 195:1 196:1 197:0 198:0 199:1 200:0 201:0 202:0 203:1 204:1 205:1 206:1 207:1 208:1 209:1 210:1 211:1 212:1 213:1 214:1 215:0 216:0 217:1 218:0 219:0 220:0 221:1 222:1 223:1 224:1 225:1 226:1 227:1 228:1 229:1 230:1 231:1 232:0 233:0 234:0 235:1 236:0 237:0 238:0 239:1 240:1 241:1 242:1 243:1 244:1 245:1 246:1 247:1 248:1 249:1 250:0 251:0 252:0 253:1 254:0 255:0 256:0 257:0 258:1 259:1 260:1 261:1 262:1 263:1 264:1 265:1 266:1 267:1 268:0 269:0 270:0 271:1 272:0 273:0 274:0 275:0 276:1 277:1 278:1 279:1 280:1 281:1 282:1 283:1 284:1 285:1 286:1 287:0 288:0 289:1 290:0 291:0 292:0 293:0 294:1 295:1 296:1 297:1 298:1 299:1 300:1 301:1 302:1 303:1 304:1 305:0 306:0 307:1 308:0 309:0 310:0 311:1 312:1 313:1 314:1 315:1 316:1 317:1 318:1 319:1 320:1 321:1 322:0 323:0 324:0 325:1 326:0 327:0 328:0 329:0 330:1 331:1 332:1 333:1 334:1 335:1 336:1 337:1 338:1 339:1 340:0 341:0 342:0 343:1 344:0 345:0 346:0 347:0 348:0 349:0 350:0 351:0 352:0 353:0 354:0 355:0 356:0 357:0 358:0 359:0 360:0 361:1 362:1 363:0 364:0 365:0 366:0 367:0 368:0 369:0 370:0 371:1 372:1 373:1 374:1 375:0 376:0 377:0 378:0 379:1 380:1 381:1 382:0 383:0 384:0 385:1 386:1 387:1 388:1 389:1 390:1 391:1 392:1 393:0 394:0 395:0 396:0 397:1 398:1 399:1 400:1 401:0 402:0 403:0 404:1 405:1 406:1 407:1 408:1 409:1 410:0 411:0 412:0 413:0 414:0 415:1 416:1 417:1 418:1 419:0 420:0 421:0 422:0 423:1 424:1 425:1 426:1 427:0 428:0 429:0 430:0 431:0 432:1 433:1 434:1 435:1 436:1 437:1 438:0 439:0 440:0 441:0 442:0 443:0 444:0 445:0 446:0 447:0 448:0 449:1 450:1 451:1 452:1 453:1 454:1 455:1 456:1 457:1 458:0 459:0 460:0 461:0 462:0 463:0 464:0 465:0 466:1 467:1 468:1 
0 0 0 0.04369124670611647 0.06567852275346087 0 0.01556808712309324 0 0 1:1 2:1 3:1 4:1 5:1 6:1 7:1 8:1 9:1 10:0 11:0 12:0 13:0 14:0 15:0 16:1 17:1 18:1 19:1 20:1 21:1 22:1 23:1 24:1 25:0 26:0 27:0 28:0 29:0 30:0 31:0 32:0 33:0 34:0 35:0 36:1 37:1 38:1 39:1 40:1 41:1 42:1 43:0 44:0 45:0 46:0 47:1 48:1 49:1 50:1 51:0 52:0 53:0 54:0 55:1 56:1 57:1 58:1 59:1 60:1 61:0 62:0 63:0 64:1 65:1 66:1 67:1 68:1 69:1 70:0 71:0 72:0 73:1 74:1 75:1 76:1 77:1 78:0 79:0 80:0 81:1 82:1 83:1 84:1 85:1 86:1 87:1 88:1 89:0 90:0 91:0 92:1 93:1 94:1 95:0 96:0 97:0 98:0 99:1 100:1 101:1 102:1 103:1 104:1 105:1 106:1 107:1 108:0 109:1 110:1 111:1 112:0 113:0 114:0 115:0 116:0 117:1 118:1 119:1 120:1 121:1 122:1 123:1 124:1 125:1 126:0 127:1 128:1 129:1 130:0 131:0 132:0 133:0 134:1 135:1 136:1 137:1 138:1 139:1 140:1 141:1 142:1 143:1 144:0 145:1 146:1 147:1 148:0 149:0 150:0 151:1 152:1 153:1 154:1 155:1 156:1 157:1 158:1 159:1 160:1 161:1 162:1 163:1 164:1 165:1 166:0 167:0 168:0 169:1 170:1 171:1 172:1 173:1 174:1 175:1 176:1 177:1 178:1 179:1 180:1 181:1 182:1 183:1 184:0 185:0 186:0 187:0 188:1 189:1 190:1 191:1 192:1 193:1 194:1 195:1 196:1 197:1 198:1 199:1 200:1 201:1 202:0 203:0 204:0 205:0 206:1 207:1 208:1 209:1 210:1 211:1 212:1 213:1 214:1 215:1 216:1 217:1 218:1 219:1 220:0 221:0 222:0 223:1 224:1 225:1 226:1 227:1 228:1 229:1 230:1 231:1 232:1 233:1 234:1 235:1 236:1 237:0 238:0 239:0 240:0 241:1 242:1 243:1 244:1 245:1 246:1 247:1 248:1 249:1 250:1 251:1 252:1 253:0 254:1 255:0 256:0 257:0 258:0 259:1 260:1 261:1 262:1 263:1 264:1 265:1 266:1 267:1 268:1 269:1 270:1 271:0 272:1 273:1 274:0 275:0 276:0 277:1 278:1 279:1 280:1 281:1 282:1 283:1 284:1 285:1 286:1 287:1 288:1 289:1 290:1 291:1 292:0 293:0 294:0 295:1 296:1 297:1 298:1 299:1 300:1 301:1 302:1 303:1 304:1 305:1 306:1 307:1 308:1 309:1 310:0 311:0 312:0 313:1 314:1 315:1 316:1 317:1 318:1 319:1 320:1 321:1 322:1 323:1 324:1 325:1 326:1 327:1 328:1 329:0 330:0 331:0 332:1 333:1 334:1 335:1 336:1 337:1 338:1 339:1 340:1 341:1 342:0 343:1 344:1 345:1 346:1 347:0 348:0 349:0 350:1 351:1 352:1 353:1 354:1 355:1 356:1 357:1 358:1 359:1 360:0 361:1 362:1 363:1 364:1 365:0 366:0 367:0 368:1 369:1 370:1 371:1 372:1 373:1 374:1 375:1 376:1 377:1 378:0 379:1 380:1 381:1 382:1 383:1 384:0 385:0 386:0 387:1 388:1 389:1 390:1 391:1 392:1 393:1 394:0 395:0 396:0 397:1 398:1 399:1 400:1 401:1 402:1 403:0 404:0 405:0 406:1 407:1 408:1 409:1 410:1 411:1 412:0 413:0 414:0 415:1 416:1 417:1 418:1 419:1 420:1 421:0 422:0 423:0 424:0 425:1 426:1 427:1 428:1 429:0 430:0 431:0 432:0 433:1 434:1 435:1 436:1 437:1 438:1 439:1 440:0 441:0 442:0 443:0 444:0 445:0 446:0 447:0 448:0 449:0 450:1 451:1 452:1 453:1 454:1 455:1 456:1 457:1 458:1 459:1 460:0 461:0 462:0 463:0 464:0 465:0 466:0 467:1 468:1 
0.3506819023068258 0.2446902765126093 0.5 0.4801088167397678 0.4937521732828357 0.4540695713323885 0.5 0.3218732136695625 0.258659488446293 1:1 2:1 3:1 4:1 5:1 6:1 7:1 8:1 9:0 10:0 11:0 12:0 13:0 14:0 15:0 16:0 17:0 18:1 19:0 20:0 21:0 22:0 23:0 24:0 25:0 26:0 27:0 28:0 29:0 30:0 31:0 32:0 33:0 34:0 35:0 36:0 37:0 38:0 39:0 40:0 41:0 42:0 43:0 44:0 45:0 46:0 47:0 48:0 49:0 50:0 51:0 52:0 53:0 54:0 55:0 56:0 57:0 58:0 59:0 60:0 61:0 62:0 63:0 64:0 65:0 66:0 67:0 68:0 69:0 70:0 71:0 72:0 73:0 74:0 75:0 76:0 77:0 78:0 79:0 80:1 81:1 82:1 83:0 84:0 85:0 86:0 87:0 88:0 89:0 90:0 91:0 92:0 93:0 94:0 95:0 96:0 97:0 98:1 99:1 100:1 101:1 102:0 103:0 104:0 105:0 106:0 107:0 108:0 109:1 110:1 111:0 112:0 113:0 114:0 115:1 116:1 117:1 118:1 119:1 120:1 121:1 122:1 123:1 124:0 125:0 126:0 127:1 128:1 129:1 130:0 131:0 132:0 133:0 134:1 135:1 136:1 137:1 138:1 139:1 140:1 141:0 142:0 143:0 144:0 145:1 146:1 147:0 148:0 149:0 150:0 151:1 152:1 153:1 154:1 155:1 156:1 157:1 158:1 159:1 160:1 161:0 162:0 163:1 164:0 165:0 166:0 167:0 168:0 169:1 170:1 171:1 172:1 173:1 174:1 175:1 176:0 177:0 178:0 179:0 180:0 181:1 182:0 183:0 184:0 185:0 186:1 187:1 188:1 189:1 190:1 191:0 192:0 193:0 194:0 195:1 196:1 197:0 198:0 199:1 200:1 201:0 202:0 203:0 204:0 205:1 206:0 207:0 208:0 209:0 210:0 211:1 212:1 213:1 214:1 215:1 216:0 217:1 218:1 219:0 220:0 221:0 222:0 223:0 224:0 225:0 226:0 227:1 228:1 229:1 230:1 231:1 232:1 233:1 234:0 235:1 236:0 237:0 238:0 239:0 240:0 241:0 242:1 243:1 244:1 245:1 246:1 247:1 248:1 249:1 250:1 251:1 252:0 253:1 254:0 255:0 256:0 257:0 258:0 259:1 260:1 261:1 262:1 263:1 264:1 265:1 266:1 267:1 268:1 269:1 270:0 271:1 272:0 273:0 274:0 275:0 276:1 277:1 278:1 279:1 280:1 281:1 282:1 283:1 284:1 285:1 286:1 287:1 288:0 289:1 290:1 291:0 292:0 293:0 294:1 295:1 296:1 297:1 298:1 299:1 300:1 301:1 302:1 303:1 304:1 305:1 306:0 307:1 308:1 309:0 310:0 311:0 312:1 313:1 314:1 315:1 316:1 317:1 318:1 319:1 320:1 321:1 322:1 323:1 324:0 325:1 326:1 327:1 328:0 329:0 330:0 331:1 332:1 333:1 334:1 335:1 336:1 337:1 338:1 339:1 340:1 341:0 342:0 343:1 344:1 345:1 346:0 347:0 348:0 349:0 350:1 351:1 352:1 353:1 354:1 355:1 356:1 357:1 358:0 359:0 360:0 361:1 362:1 363:0 364:0 365:0 366:0 367:0 368:1 369:1 370:1 371:1 372:1 373:1 374:1 375:1 376:0 377:0 378:0 379:1 380:1 381:1 382:0 383:0 384:0 385:0 386:0 387:1 388:1 389:1 390:1 391:1 392:1 393:1 394:0 395:0 396:0 397:1 398:1 399:1 400:1 401:0 402:0 403:0 404:0 405:1 406:1 407:1 408:1 409:1 410:1 411:0 412:0 413:0 414:1 415:1 416:1 417:1 418:1 419:1 420:0 421:0 422:0 423:0 424:1 425:1 426:1 427:1 428:0 429:0 430:0 431:0 432:1 433:1 434:1 435:1 436:1 437:1 438:1 439:0 440:0 441:0 442:0 443:0 444:0 445:0 446:0 447:0 448:0 449:1 450:1 451:1 452:1 453:1 454:1 455:1 456:1 457:1 458:1 459:0 460:0 461:0 462:0 463:0 464:0 465:1 466:1 467:1 468:1 
0 0 0.1806236348950697 0 0.2395117812986723 0 0 0 0 1:1 2:1 3:1 4:1 5:1 6:1 7:1 8:1 9:1 10:0 11:0 12:0 13:0 14:0 15:0 16:1 17:1 18:1 19:1 20:1 21:1 22:1 23:1 24:1 25:1 26:0 27:0 28:0 29:0 30:0 31:0 32:0 33:0 34:0 35:0 36:1 37:1 38:1 39:1 40:1 41:1 42:1 43:0 44:0 45:0 46:0 47:1 48:1 49:1 50:1 51:0 52:0 53:0 54:0 55:1 56:1 57:1 58:1 59:1 60:1 61:0 62:0 63:0 64:1 65:1 66:1 67:1 68:1 69:1 70:0 71:0 72:0 73:1 74:1 75:1 76:1 77:1 78:0 79:0 80:0 81:1 82:1 83:1 84:1 85:1 86:1 87:1 88:1 89:0 90:0 91:1 92:1 93:1 94:1 95:0 96:0 97:0 98:1 99:1 100:1 101:1 102:1 103:1 104:1 105:1 106:1 107:1 108:0 109:1 110:1 111:1 112:1 113:0 114:0 115:0 116:1 117:1 118:1 119:1 120:1 121:1 122:1 123:1 124:1 125:0 126:0 127:1 128:1 129:1 130:1 131:0 132:0 133:0 134:1 135:1 136:1 137:1 138:1 139:1 140:1 141:1 142:1 143:1 144:0 145:1 146:1 147:1 148:0 149:0 150:0 151:0 152:1 153:1 154:1 155:1 156:1 157:1 158:1 159:1 160:1 161:1 162:0 163:1 164:1 165:0 166:0 167:0 168:0 169:0 170:1 171:1 172:1 173:1 174:1 175:1 176:1 177:1 178:1 179:1 180:1 181:1 182:1 183:0 184:0 185:0 186:0 187:1 188:1 189:1 190:1 191:1 192:1 193:1 194:1 195:1 196:1 197:1 198:1 199:1 200:1 201:1 202:0 203:0 204:0 205:1 206:1 207:1 208:1 209:1 210:1 211:1 212:1 213:1 214:1 215:1 216:1 217:1 218:1 219:1 220:0 221:0 222:0 223:0 224:1 225:1 226:1 227:1 228:1 229:1 230:1 231:1 232:1 233:1 234:1 235:1 236:1 237:1 238:0 239:0 240:0 241:0 242:1 243:1 244:1 245:1 246:1 247:1 248:1 249:1 250:1 251:1 252:1 253:1 254:1 255:0 256:0 257:0 258:0 259:0 260:1 261:1 262:1 263:1 264:1 265:1 266:1 267:1 268:1 269:1 270:1 271:1 272:1 273:0 274:0 275:0 276:0 277:1 278:1 279:1 280:1 281:1 282:1 283:1 284:1 285:1 286:1 287:1 288:1 289:1 290:1 291:0 292:0 293:0 294:0 295:1 296:1 297:1 298:1 299:1 300:1 301:1 302:1 303:1 304:1 305:1 306:1 307:1 308:1 309:1 310:0 311:0 312:0 313:1 314:1 315:1 316:1 317:1 318:1 319:1 320:1 321:1 322:1 323:1 324:1 325:1 326:1 327:1 328:1 329:0 330:0 331:0 332:1 333:1 334:1 335:1 336:1 337:1 338:1 339:1 340:1 341:1 342:0 343:1 344:1 345:1 346:1 347:0 348:0 349:0 350:1 351:1 352:1 353:1 354:1 355:1 356:1 357:1 358:1 359:1 360:0 361:1 362:1 363:1 364:1 365:0 366:0 367:0 368:1 369:1 370:1 371:1 372:1 373:1 374:1 375:1 376:1 377:1 378:0 379:1 380:1 381:1 382:1 383:1 384:0 385:0 386:0 387:1 388:1 389:1 390:1 391:1 392:1 393:1 394:1 395:0 396:0 397:1 398:1 399:1 400:1 401:1 402:1 403:0 404:0 405:0 406:1 407:1 408:1 409:1 410:1 411:1 412:0 413:0 414:0 415:1 416:1 417:1 418:1 419:1 420:1 421:0 422:0 423:0 424:0 425:1 426:1 427:1 428:1 429:0 430:0 431:0 432:0 433:1 434:1 435:1 436:1 437:1 438:1 439:1 440:0 441:0 442:0 443:0 444:0 445:0 446:0 447:0 448:0 449:0 450:1 451:1 452:1 453:1 454:1 455:1 456:1 457:1 458:1 459:1 460:0 461:0 462:0 463:0 464:0 465:0 466:1 467:1 468:1 
0.1871236068604692 0 0 0 0 0 0 0 0 1:1 2:1 3:1 4:1 5:1 6:1 7:1 8:0 9:0 10:0 11:0 12:0 13:0 14:1 15:1 16:1 17:1 18:1 19:1 20:1 21:1 22:1 23:1 24:0 25:0 26:0 27:0 28:0 29:0 30:0 31:0 32:0 33:0 34:1 35:1 36:1 37:1 38:1 39:1 40:1 41:0 42:0 43:0 44:0 45:1 46:1 47:1 48:1 49:0 50:0 51:0 52:0 53:1 54:1 55:1 56:1 57:1 58:1 59:0 60:0 61:0 62:1 63:1 64:1 65:1 66:1 67:1 68:0 69:0 70:0 71:1 72:1 73:1 74:1 75:1 76:0 77:0 78:0 79:1 80:1 81:1 82:1 83:1 84:1 85:1 86:1 87:0 88:0 89:0 90:1 91:1 92:1 93:0 94:0 95:0 96:1 97:1 98:1 99:1 100:1 101:1 102:1 103:1 104:1 105:1 106:0 107:0 108:0 109:1 110:1 111:0 112:0 113:0 114:1 115:1 116:1 117:1 118:1 119:1 120:1 121:1 122:1 123:1 124:0 125:0 126:0 127:1 128:1 129:0 130:0 131:0 132:1 133:1 134:1 135:1 136:1 137:1 138:1 139:1 140:1 141:1 142:0 143:0 144:0 145:1 146:0 147:0 148:0 149:1 150:1 151:1 152:1 153:1 154:1 155:1 156:1 157:1 158:1 159:1 160:1 161:0 162:0 163:1 164:0 165:0 166:0 167:1 168:1 169:1 170:1 171:1 172:1 173:1 174:1 175:1 176:1 177:1 178:1 179:0 180:0 181:1 182:0 183:0 184:0 185:1 186:1 187:1 188:1 189:1 190:1 191:1 192:1 193:1 194:1 195:1 196:1 197:0 198:0 199:0 200:0 201:0 202:0 203:1 204:1 205:1 206:1 207:1 208:1 209:1 210:1 211:1 212:1 213:1 214:1 215:0 216:0 217:0 218:0 219:0 220:0 221:0 222:1 223:1 224:1 225:1 226:1 227:1 228:1 229:1 230:1 231:1 232:1 233:0 234:0 235:0 236:0 237:0 238:0 239:0 240:1 241:1 242:1 243:1 244:1 245:1 246:1 247:1 248:1 249:1 250:1 251:0 252:0 253:1 254:0 255:0 256:0 257:0 258:1 259:1 260:1 261:1 262:1 263:1 264:1 265:1 266:1 267:1 268:0 269:0 270:0 271:0 272:0 273:0 274:0 275:1 276:1 277:1 278:1 279:1 280:1 281:1 282:1 283:1 284:1 285:1 286:0 287:0 288:0 289:0 290:0 291:0 292:0 293:0 294:1 295:1 296:1 297:1 298:1 299:1 300:1 301:1 302:0 303:0 304:0 305:0 306:0 307:0 308:0 309:0 310:0 311:0 312:1 313:1 314:1 315:0 316:0 317:0 318:0 319:0 320:0 321:0 322:0 323:0 324:0 325:0 326:0 327:0 328:0 329:0 330:0 331:0 332:0 333:0 334:0 335:0 336:0 337:0 338:0 339:0 340:0 341:0 342:0 343:1 344:0 345:0 346:0 347:0 348:0 349:1 350:1 351:0 352:0 353:0 354:0 355:0 356:0 357:0 358:0 359:0 360:0 361:1 362:0 363:0 364:0 365:0 366:0 367:1 368:1 369:1 370:1 371:1 372:1 373:1 374:1 375:0 376:0 377:0 378:0 379:1 380:1 381:0 382:0 383:0 384:0 385:1 386:1 387:1 388:1 389:1 390:1 391:1 392:1 393:0 394:0 395:0 396:0 397:1 398:1 399:1 400:0 401:0 402:0 403:0 404:1 405:1 406:1 407:1 408:1 409:1 410:0 411:0 412:0 413:0 414:1 415:1 416:1 417:1 418:1 419:0 420:0 421:0 422:0 423:1 424:1 425:1 426:1 427:0 428:0 429:0 430:0 431:1 432:1 433:1 434:1 435:1 436:1 437:1 438:0 439:0 440:0 441:0 442:0 443:0 444:0 445:0 446:0 447:0 448:1 449:1 450:1 451:1 452:1 453:1 454:1 455:1 456:1 457:1 458:0 459:0 460:0 461:0 462:0 463:0 464:1 465:1 466:1 467:1 468:1 
0.2600802657887711 0.2263762460318635 0.5 0.3803593037247451 0.2647592025266312 0 0.5 0.1422328345225644 0.1046893564900533 1:1 2:1 3:1 4:1 5:1 6:1 7:1 8:1 9:0 10:0 11:0 12:0 13:0 14:0 15:1 16:1 17:1 18:1 19:1 20:1 21:1 22:1 23:1 24:1 25:0 26:0 27:0 28:0 29:0 30:0 31:0 32:0 33:0 34:0 35:1 36:1 37:1 38:1 39:1 40:1 41:1 42:0 43:0 44:0 45:0 46:1 47:1 48:1 49:1 50:0 51:0 52:0 53:0 54:1 55:1 56:1 57:1 58:1 59:0 60:0 61:0 62:0 63:1 64:1 65:1 66:1 67:1 68:1 69:0 70:0 71:0 72:1 73:1 74:1 75:1 76:0 77:0 78:0 79:0 80:1 81:1 82:1 83:1 84:1 85:1 86:1 87:1 88:0 89:0 90:0 91:1 92:1 93:0 94:0 95:0 96:0 97:1 98:1 99:1 100:1 101:1 102:1 103:1 104:1 105:1 106:1 107:0 108:0 109:1 110:1 111:1 112:0 113:0 114:0 115:1 116:1 117:1 118:1 119:1 120:1 121:1 122:1 123:1 124:1 125:0 126:0 127:1 128:1 129:1 130:0 131:0 132:0 133:1 134:1 135:1 136:1 137:1 138:1 139:1 140:1 141:1 142:1 143:0 144:0 145:1 146:1 147:0 148:0 149:0 150:0 151:1 152:1 153:1 154:1 155:1 156:1 157:1 158:1 159:1 160:1 161:0 162:0 163:1 164:0 165:0 166:0 167:0 168:0 169:0 170:0 171:0 172:0 173:0 174:0 175:1 176:1 177:1 178:1 179:0 180:0 181:0 182:0 183:0 184:0 185:0 186:0 187:0 188:0 189:0 190:0 191:0 192:0 193:0 194:0 195:0 196:0 197:0 198:0 199:0 200:0 201:0 202:0 203:0 204:0 205:0 206:0 207:0 208:0 209:0 210:0 211:0 212:0 213:0 214:0 215:0 216:0 217:0 218:0 219:0 220:0 221:0 222:0 223:1 224:1 225:1 226:1 227:1 228:1 229:0 230:0 231:0 232:0 233:0 234:0 235:0 236:0 237:0 238:0 239:0 240:0 241:0 242:0 243:0 244:0 245:1 246:1 247:1 248:1 249:1 250:1 251:0 252:0 253:0 254:0 255:0 256:0 257:0 258:0 259:1 260:1 261:1 262:1 263:1 264:1 265:1 266:1 267:1 268:1 269:0 270:0 271:0 272:0 273:0 274:0 275:0 276:0 277:1 278:1 279:1 280:1 281:1 282:1 283:1 284:1 285:1 286:1 287:0 288:0 289:1 290:0 291:0 292:0 293:0 294:0 295:1 296:1 297:1 298:1 299:1 300:1 301:1 302:1 303:1 304:1 305:0 306:0 307:1 308:1 309:0 310:0 311:0 312:0 313:0 314:1 315:1 316:1 317:1 318:1 319:1 320:1 321:1 322:1 323:1 324:0 325:1 326:1 327:1 328:0 329:0 330:0 331:0 332:1 333:1 334:1 335:1 336:1 337:1 338:1 339:1 340:1 341:0 342:0 343:1 344:1 345:1 346:0 347:0 348:0 349:1 350:1 351:1 352:1 353:1 354:0 355:0 356:0 357:1 358:0 359:0 360:0 361:1 362:1 363:1 364:0 365:0 366:0 367:1 368:1 369:1 370:1 371:1 372:1 373:0 374:0 375:0 376:0 377:0 378:0 379:1 380:1 381:1 382:0 383:0 384:0 385:1 386:1 387:1 388:1 389:1 390:1 391:1 392:1 393:0 394:0 395:0 396:0 397:1 398:1 399:1 400:1 401:0 402:0 403:0 404:1 405:1 406:1 407:1 408:1 409:1 410:1 411:0 412:0 413:0 414:0 415:1 416:1 417:1 418:1 419:1 420:0 421:0 422:0 423:0 424:0 425:1 426:1 427:1 428:0 429:0 430:0 431:0 432:1 433:1 434:1 435:1 436:1 437:1 438:1 439:0 440:0 441:0 442:0 443:0 444:0 445:0 446:0 447:0 448:0 449:0 450:0 451:1 452:1 453:1 454:1 455:1 456:1 457:1 458:1 459:0 460:0 461:0 462:0 463:0 464:0 465:0 466:1 467:1 468:1 
0.4764650955600656 0.5 0.5 0.5 0.5 0.4670635584000012 0.5 0.5 0.4151712480101633 1:1 2:1 3:1 4:1 5:1 6:1 7:1 8:1 9:0 10:0 11:0 12:0 13:0 14:0 15:1 16:1 17:1 18:1 19:1 20:1 21:1 22:1 23:1 24:1 25:0 26:0 27:0 28:0 29:0 30:0 31:0 32:0 33:0 34:0 35:1 36:1 37:1 38:1 39:1 40:1 41:1 42:0 43:0 44:0 45:0 46:1 47:1 48:1 49:1 50:0 51:0 52:0 53:0 54:1 55:1 56:1 57:1 58:1 59:1 60:0 61:0 62:0 63:1 64:1 65:1 66:1 67:1 68:1 69:0 70:0 71:0 72:1 73:1 74:1 75:1 76:1 77:0 78:0 79:0 80:1 81:1 82:1 83:1 84:1 85:1 86:1 87:1 88:0 89:0 90:0 91:1 92:1 93:1 94:0 95:0 96:0 97:1 98:1 99:1 100:1 101:1 102:1 103:1 104:1 105:1 106:1 107:0 108:0 109:1 110:1 111:1 112:0 113:0 114:0 115:1 116:1 117:1 118:1 119:1 120:1 121:1 122:1 123:1 124:1 125:0 126:0 127:1 128:1 129:1 130:0 131:0 132:0 133:1 134:1 135:1 136:1 137:1 138:1 139:1 140:1 141:1 142:1 143:0 144:0 145:1 146:1 147:0 148:0 149:0 150:1 151:1 152:1 153:1 154:1 155:1 156:1 157:1 158:1 159:1 160:1 161:1 162:0 163:1 164:1 165:0 166:0 167:0 168:1 169:1 170:1 171:1 172:1 173:1 174:1 175:1 176:1 177:1 178:1 179:1 180:0 181:1 182:0 183:0 184:0 185:0 186:0 187:1 188:1 189:1 190:1 191:1 192:1 193:1 194:1 195:1 196:1 197:0 198:0 199:0 200:0 201:0 202:0 203:0 204:0 205:0 206:0 207:0 208:0 209:0 210:0 211:0 212:0 213:0 214:0 215:0 216:0 217:0 218:0 219:0 220:0 221:0 222:0 223:0 224:0 225:0 226:0 227:0 228:0 229:0 230:0 231:0 232:1 233:0 234:0 235:0 236:0 237:0 238:0 239:0 240:0 241:0 242:0 243:0 244:0 245:0 246:0 247:0 248:1 249:1 250:1 251:1 252:0 253:0 254:0 255:0 256:0 257:0 258:0 259:0 260:0 261:0 262:0 263:0 264:0 265:0 266:1 267:1 268:1 269:0 270:0 271:0 272:0 273:0 274:0 275:0 276:0 277:0 278:0 279:0 280:0 281:0 282:0 283:0 284:1 285:1 286:1 287:0 288:0 289:0 290:0 291:0 292:0 293:0 294:0 295:0 296:0 297:0 298:0 299:0 300:0 301:0 302:0 303:0 304:0 305:0 306:0 307:0 308:0 309:0 310:0 311:0 312:0 313:0 314:0 315:0 316:0 317:1 318:1 319:1 320:1 321:1 322:1 323:0 324:0 325:1 326:1 327:0 328:0 329:0 330:0 331:0 332:1 333:1 334:1 335:1 336:1 337:1 338:1 339:1 340:0 341:0 342:0 343:1 344:1 345:1 346:0 347:0 348:0 349:1 350:1 351:1 352:1 353:1 354:1 355:1 356:1 357:1 358:1 359:0 360:0 361:1 362:1 363:1 364:0 365:0 366:0 367:1 368:1 369:1 370:1 371:1 372:1 373:1 374:1 375:1 376:1 377:0 378:0 379:1 380:1 381:1 382:1 383:0 384:0 385:0 386:1 387:1 388:1 389:1 390:1 391:1 392:1 393:1 394:0 395:0 396:0 397:1 398:1 399:1 400:1 401:1 402:0 403:0 404:0 405:1 406:1 407:1 408:1 409:1 410:1 411:0 412:0 413:0 414:1 415:1 416:1 417:1 418:1 419:1 420:0 421:0 422:0 423:0 424:1 425:1 426:1 427:1 428:0 429:0 430:0 431:0 432:1 433:1 434:1 435:1 436:1 437:1 438:1 439:0 440:0 441:0 442:0 443:0 444:0 445:0 446:0 447:0 448:0 449:1 450:1 451:1 452:1 453:1 454:1 455:1 456:1 457:1 458:1 459:0 460:0 461:0 462:0 463:0 464:0 465:1 466:1 467:1 468:1 
0.05211273139919561 0.05441525604025389 0 0 0 0 0 0 0.1261883280621156 1:1 2:1 3:1 4:1 5:1 6:1 7:1 8:0 9:0 10:0 11:0 12:0 13:0 14:1 15:1 16:1 17:1 18:1 19:1 20:1 21:1 22:1 23:1 24:0 25:0 26:0 27:0 28:0 29:0 30:0 31:0 32:0 33:0 34:1 35:1 36:1 37:1 38:1 39:1 40:1 41:0 42:0 43:0 44:0 45:0 46:0 47:1 48:1 49:0 50:0 51:0 52:0 53:1 54:1 55:1 56:1 57:1 58:1 59:0 60:0 61:0 62:0 63:1 64:1 65:1 66:1 67:1 68:0 69:0 70:0 71:1 72:1 73:1 74:1 75:1 76:0 77:0 78:0 79:0 80:0 81:1 82:1 83:1 84:1 85:1 86:0 87:0 88:0 89:0 90:1 91:0 92:0 93:0 94:0 95:0 96:0 97:0 98:0 99:0 100:0 101:0 102:0 103:0 104:0 105:0 106:0 107:0 108:0 109:0 110:0 111:0 112:0 113:0 114:0 115:0 116:0 117:0 118:0 119:0 120:0 121:0 122:0 123:0 124:0 125:0 126:0 127:1 128:0 129:0 130:0 131:0 132:1 133:1 134:1 135:1 136:1 137:1 138:0 139:0 140:0 141:0 142:0 143:0 144:0 145:1 146:0 147:0 148:0 149:1 150:1 151:1 152:1 153:1 154:1 155:1 156:1 157:1 158:1 159:1 160:0 161:0 162:0 163:0 164:0 165:0 166:0 167:0 168:1 169:1 170:1 171:1 172:1 173:1 174:1 175:1 176:1 177:1 178:1 179:0 180:0 181:1 182:0 183:0 184:0 185:0 186:1 187:1 188:1 189:1 190:1 191:1 192:1 193:1 194:1 195:1 196:1 197:0 198:0 199:1 200:0 201:0 202:0 203:0 204:1 205:1 206:1 207:1 208:1 209:1 210:1 211:1 212:1 213:1 214:1 215:0 216:0 217:1 218:0 219:0 220:0 221:1 222:1 223:1 224:1 225:1 226:1 227:1 228:1 229:1 230:1 231:1 232:1 233:0 234:0 235:1 236:0 237:0 238:0 239:1 240:1 241:1 242:1 243:1 244:1 245:1 246:1 247:1 248:1 249:1 250:1 251:0 252:0 253:1 254:0 255:0 256:0 257:1 258:1 259:1 260:1 261:1 262:1 263:1 264:1 265:1 266:1 267:1 268:1 269:0 270:0 271:1 272:0 273:0 274:0 275:1 276:1 277:1 278:1 279:1 280:1 281:1 282:1 283:1 284:1 285:1 286:1 287:0 288:0 289:1 290:0 291:0 292:0 293:1 294:1 295:1 296:1 297:1 298:1 299:1 300:1 301:1 302:1 303:1 304:1 305:0 306:0 307:1 308:0 309:0 310:0 311:1 312:1 313:1 314:1 315:1 316:1 317:1 318:1 319:1 320:1 321:1 322:1 323:0 324:0 325:1 326:1 327:0 328:0 329:0 330:1 331:1 332:1 333:1 334:1 335:1 336:1 337:1 338:1 339:1 340:0 341:0 342:0 343:1 344:0 345:0 346:0 347:0 348:0 349:1 350:1 351:1 352:1 353:1 354:1 355:1 356:1 357:0 358:0 359:0 360:0 361:1 362:1 363:0 364:0 365:0 366:0 367:1 368:1 369:1 370:1 371:1 372:0 373:0 374:0 375:0 376:0 377:0 378:0 379:1 380:1 381:1 382:0 383:0 384:0 385:0 386:0 387:0 388:1 389:1 390:1 391:1 392:1 393:0 394:0 395:0 396:1 397:1 398:1 399:1 400:0 401:0 402:0 403:0 404:1 405:1 406:1 407:1 408:1 409:0 410:0 411:0 412:0 413:1 414:1 415:1 416:1 417:1 418:1 419:0 420:0 421:0 422:0 423:0 424:0 425:0 426:0 427:0 428:0 429:0 430:0 431:1 432:1 433:1 434:1 435:1 436:1 437:1 438:0 439:0 440:0 441:0 442:0 443:0 444:0 445:0 446:0 447:0 448:1 449:1 450:1 451:1 452:1 453:1 454:1 455:1 456:1 457:1 458:0 459:0 460:0 461:0 462:0 463:0 464:1 465:1 466:1 467:1 468:1 
0 0 0.1228723238577588 0.1994803904315503 0 0 0.5 0 0 1:1 2:1 3:1 4:1 5:1 6:1 7:1 8:0 9:0 10:0 11:0 12:0 13:0 14:0 15:0 16:1 17:1 18:1 19:1 20:1 21:1 22:1 23:1 24:0 25:0 26:0 27:0 28:0 29:0 30:0 31:0 32:0 33:0 34:0 35:1 36:1 37:1 38:1 39:1 40:1 41:0 42:0 43:0 44:0 45:1 46:1 47:1 48:1 49:0 50:0 51:0 52:0 53:1 54:1 55:1 56:1 57:1 58:1 59:0 60:0 61:0 62:1 63:1 64:1 65:1 66:1 67:1 68:0 69:0 70:0 71:1 72:1 73:1 74:1 75:1 76:0 77:0 78:0 79:1 80:1 81:1 82:1 83:1 84:1 85:1 86:1 87:0 88:0 89:0 90:1 91:1 92:1 93:0 94:0 95:0 96:1 97:1 98:1 99:1 100:1 101:1 102:1 103:1 104:1 105:1 106:0 107:0 108:0 109:1 110:1 111:0 112:0 113:0 114:1 115:1 116:1 117:1 118:1 119:1 120:1 121:1 122:1 123:1 124:0 125:0 126:0 127:1 128:0 129:0 130:0 131:0 132:1 133:1 134:1 135:1 136:1 137:1 138:1 139:1 140:1 141:1 142:0 143:0 144:0 145:1 146:0 147:0 148:0 149:0 150:1 151:1 152:1 153:1 154:1 155:1 156:1 157:1 158:1 159:1 160:0 161:0 162:0 163:0 164:0 165:0 166:0 167:0 168:1 169:1 170:1 171:1 172:1 173:1 174:1 175:1 176:1 177:1 178:0 179:0 180:0 181:0 182:0 183:0 184:0 185:0 186:0 187:0 188:0 189:0 190:0 191:0 192:0 193:1 194:1 195:1 196:0 197:0 198:0 199:0 200:0 201:0 202:0 203:0 204:1 205:0 206:0 207:0 208:0 209:0 210:0 211:0 212:0 213:0 214:0 215:0 216:0 217:0 218:0 219:0 220:0 221:0 222:1 223:1 224:1 225:1 226:1 227:0 228:0 229:1 230:1 231:1 232:0 233:0 234:0 235:0 236:0 237:0 238:0 239:1 240:1 241:1 242:1 243:1 244:1 245:1 246:1 247:1 248:1 249:1 250:0 251:0 252:0 253:1 254:0 255:0 256:0 257:1 258:1 259:1 260:1 261:1 262:1 263:1 264:1 265:1 266:1 267:1 268:1 269:0 270:0 271:1 272:0 273:0 274:0 275:1 276:1 277:1 278:1 279:1 280:1 281:1 282:1 283:1 284:1 285:1 286:1 287:0 288:0 289:1 290:0 291:0 292:0 293:0 294:1 295:1 296:1 297:1 298:1 299:1 300:1 301:1 302:1 303:1 304:1 305:0 306:0 307:1 308:0 309:0 310:0 311:0 312:1 313:1 314:1 315:1 316:1 317:1 318:1 319:1 320:1 321:1 322:1 323:0 324:0 325:1 326:0 327:0 328:0 329:0 330:1 331:1 332:1 333:1 334:1 335:1 336:1 337:1 338:1 339:1 340:0 341:0 342:0 343:1 344:0 345:0 346:0 347:0 348:1 349:1 350:1 351:1 352:1 353:1 354:1 355:1 356:1 357:0 358:0 359:0 360:0 361:1 362:1 363:0 364:0 365:0 366:1 367:1 368:1 369:1 370:1 371:1 372:1 373:1 374:1 375:0 376:0 377:0 378:0 379:1 380:1 381:1 382:0 383:0 384:0 385:1 386:1 387:1 388:1 389:1 390:1 391:1 392:0 393:0 394:0 395:0 396:1 397:1 398:1 399:1 400:1 401:0 402:0 403:0 404:1 405:1 406:1 407:1 408:1 409:1 410:0 411:0 412:0 413:1 414:1 415:1 416:1 417:1 418:1 419:0 420:0 421:0 422:0 423:1 424:1 425:1 426:1 427:0 428:0 429:0 430:0 431:1 432:1 433:1 434:1 435:1 436:1 437:1 438:0 439:0 440:0 441:0 442:0 443:0 444:0 445:0 446:0 447:0 448:1 449:1 450:1 451:1 452:1 453:1 454:1 455:1 456:1 457:1 458:0 459:0 460:0 461:0 462:0 463:0 464:0 465:0 466:1 467:1 468:1 
0.09123241964647795 0.5 0.5 0.371941959139632 0.4529145658550864 0.01841400864806088 0.5 0.1789616595116963 0.1478126651513711 1:1 2:1 3:1 4:1 5:1 6:1 7:1 8:1 9:0 10:0 11:0 12:0 13:0 14:0 15:1 16:1 17:1 18:1 19:1 20:1 21:1 22:1 23:1 24:1 25:0 26:0 27:0 28:0 29:0 30:0 31:0 32:0 33:0 34:0 35:1 36:1 37:1 38:1 39:1 40:1 41:1 42:0 43:0 44:0 45:0 46:0 47:0 48:0 49:0 50:0 51:0 52:0 53:0 54:1 55:1 56:1 57:1 58:1 59:0 60:0 61:0 62:0 63:1 64:1 65:1 66:1 67:1 68:1 69:0 70:0 71:0 72:1 73:1 74:1 75:1 76:0 77:0 78:0 79:0 80:1 81:1 82:1 83:1 84:1 85:1 86:1 87:1 88:0 89:0 90:0 91:1 92:1 93:1 94:0 95:0 96:0 97:1 98:1 99:1 100:1 101:1 102:1 103:1 104:1 105:1 106:1 107:0 108:0 109:1 110:1 111:0 112:0 113:0 114:0 115:0 116:1 117:1 118:1 119:1 120:1 121:1 122:1 123:1 124:1 125:0 126:0 127:1 128:1 129:0 130:0 131:0 132:0 133:1 134:1 135:1 136:1 137:1 138:1 139:1 140:1 141:1 142:0 143:0 144:0 145:1 146:0 147:0 148:0 149:0 150:0 151:1 152:1 153:1 154:1 155:1 156:1 157:1 158:1 159:1 160:1 161:0 162:0 163:1 164:1 165:0 166:0 167:0 168:1 169:1 170:1 171:1 172:1 173:1 174:1 175:1 176:1 177:1 178:1 179:0 180:0 181:1 182:0 183:0 184:0 185:0 186:1 187:1 188:1 189:1 190:1 191:1 192:1 193:1 194:1 195:1 196:1 197:1 198:0 199:1 200:0 201:0 202:0 203:0 204:0 205:1 206:1 207:1 208:1 209:1 210:1 211:1 212:1 213:1 214:1 215:0 216:0 217:1 218:0 219:0 220:0 221:0 222:0 223:0 224:0 225:1 226:1 227:1 228:1 229:0 230:0 231:0 232:0 233:0 234:0 235:1 236:1 237:0 238:0 239:0 240:0 241:0 242:0 243:0 244:0 245:0 246:0 247:0 248:0 249:0 250:0 251:0 252:0 253:1 254:1 255:0 256:0 257:0 258:0 259:1 260:1 261:1 262:1 263:1 264:1 265:0 266:0 267:0 268:1 269:0 270:0 271:1 272:1 273:0 274:0 275:0 276:1 277:1 278:1 279:1 280:1 281:1 282:1 283:1 284:1 285:1 286:1 287:0 288:0 289:1 290:1 291:0 292:0 293:0 294:1 295:1 296:1 297:1 298:1 299:1 300:1 301:1 302:1 303:1 304:1 305:0 306:0 307:1 308:1 309:0 310:0 311:0 312:1 313:1 314:1 315:1 316:1 317:1 318:1 319:1 320:1 321:1 322:1 323:0 324:0 325:1 326:1 327:1 328:0 329:0 330:0 331:1 332:1 333:1 334:1 335:1 336:1 337:1 338:1 339:1 340:1 341:0 342:0 343:1 344:1 345:1 346:0 347:0 348:0 349:1 350:1 351:1 352:1 353:1 354:1 355:1 356:1 357:1 358:0 359:0 360:0 361:1 362:1 363:0 364:0 365:0 366:0 367:1 368:1 369:1 370:1 371:1 372:1 373:1 374:0 375:0 376:0 377:0 378:0 379:0 380:0 381:0 382:0 383:0 384:0 385:0 386:1 387:1 388:0 389:0 390:0 391:0 392:0 393:0 394:0 395:0 396:0 397:0 398:0 399:0 400:0 401:0 402:0 403:0 404:0 405:0 406:0 407:0 408:1 409:1 410:0 411:0 412:0 413:0 414:0 415:0 416:0 417:0 418:0 419:0 420:0 421:0 422:0 423:0 424:0 425:0 426:0 427:0 428:0 429:0 430:0 431:0 432:1 433:1 434:1 435:1 436:1 437:1 438:1 439:0 440:0 441:0 442:0 443:0 444:0 445:0 446:0 447:0 448:0 449:1 450:1 451:1 452:1 453:1 454:1 455:1 456:1 457:0 458:0 459:0 460:0 461:0 462:0 463:0 464:0 465:1 466:1 467:1 468:1 
0 0 0 0.04158176723427871 0 0 0 0 0 1:0 2:0 3:0 4:0 5:0 6:0 7:0 8:0 9:0 10:0 11:0 12:0 13:0 14:0 15:0 16:1 17:1 18:1 19:1 20:1 21:1 22:1 23:0 24:0 25:0 26:0 27:0 28:0 29:0 30:0 31:0 32:0 33:0 34:1 35:1 36:1 37:1 38:1 39:1 40:0 41:0 42:0 43:0 44:0 45:0 46:0 47:0 48:0 49:0 50:0 51:0 52:0 53:1 54:1 55:1 56:1 57:1 58:0 59:0 60:0 61:0 62:0 63:0 64:0 65:0 66:0 67:0 68:0 69:0 70:0 71:0 72:1 73:1 74:1 75:0 76:0 77:0 78:0 79:1 80:1 81:1 82:1 83:1 84:1 85:1 86:0 87:0 88:0 89:0 90:0 91:1 92:0 93:0 94:0 95:0 96:0 97:1 98:1 99:1 100:1 101:1 102:1 103:1 104:1 105:0 106:0 107:0 108:0 109:1 110:1 111:0 112:0 113:0 114:1 115:1 116:1 117:1 118:1 119:1 120:1 121:0 122:0 123:0 124:0 125:0 126:0 127:1 128:0 129:0 130:0 131:0 132:0 133:1 134:1 135:1 136:1 137:1 138:1 139:0 140:0 141:0 142:0 143:0 144:0 145:1 146:0 147:0 148:0 149:0 150:0 151:1 152:1 153:1 154:1 155:1 156:1 157:1 158:1 159:1 160:0 161:0 162:0 163:0 164:0 165:0 166:0 167:0 168:0 169:1 170:1 171:1 172:1 173:1 174:1 175:1 176:1 177:1 178:1 179:0 180:0 181:0 182:0 183:0 184:0 185:0 186:1 187:1 188:1 189:1 190:1 191:1 192:1 193:1 194:1 195:1 196:1 197:0 198:0 199:0 200:0 201:0 202:0 203:1 204:1 205:1 206:1 207:1 208:1 209:1 210:1 211:1 212:1 213:1 214:1 215:0 216:0 217:0 218:0 219:0 220:0 221:1 222:1 223:1 224:1 225:1 226:1 227:1 228:1 229:1 230:1 231:1 232:0 233:0 234:0 235:1 236:0 237:0 238:0 239:1 240:1 241:1 242:1 243:1 244:1 245:1 246:1 247:1 248:1 249:1 250:0 251:0 252:0 253:1 254:0 255:0 256:0 257:1 258:1 259:1 260:1 261:1 262:1 263:1 264:1 265:1 266:1 267:1 268:0 269:0 270:0 271:1 272:0 273:0 274:0 275:1 276:1 277:1 278:1 279:1 280:1 281:1 282:1 283:1 284:1 285:1 286:1 287:0 288:0 289:1 290:0 291:0 292:0 293:1 294:1 295:1 296:1 297:1 298:1 299:1 300:1 301:1 302:1 303:1 304:1 305:0 306:0 307:1 308:0 309:0 310:0 311:1 312:1 313:1 314:1 315:1 316:1 317:1 318:1 319:1 320:1 321:1 322:1 323:0 324:0 325:1 326:1 327:0 328:0 329:0 330:1 331:1 332:1 333:1 334:1 335:1 336:1 337:1 338:1 339:1 340:0 341:0 342:0 343:1 344:1 345:0 346:0 347:0 348:1 349:1 350:1 351:1 352:1 353:1 354:1 355:1 356:1 357:1 358:0 359:0 360:0 361:1 362:1 363:0 364:0 365:0 366:1 367:1 368:1 369:1 370:1 371:1 372:1 373:1 374:1 375:1 376:0 377:0 378:0 379:1 380:1 381:1 382:0 383:0 384:0 385:1 386:1 387:1 388:1 389:1 390:1 391:1 392:1 393:0 394:0 395:0 396:1 397:1 398:1 399:1 400:1 401:0 402:0 403:0 404:1 405:1 406:1 407:1 408:1 409:1 410:0 411:0 412:0 413:1 414:1 415:1 416:1 417:1 418:1 419:0 420:0 421:0 422:0 423:1 424:1 425:1 426:1 427:0 428:0 429:0 430:0 431:1 432:1 433:1 434:1 435:1 436:1 437:1 438:0 439:0 440:0 441:0 442:0 443:0 444:0 445:0 446:0 447:0 448:1 449:1 450:1 451:1 452:1 453:1 454:1 455:1 456:1 457:1 458:0 459:0 460:0 461:0 462:0 463:0 464:1 465:1 466:1 467:1 468:1 
0 0 0 0.3964313632709294 0.1875077795099402 0.2987063574955805 0.4011739549479065 0.01409786054558392 0 1:1 2:1 3:1 4:1 5:1 6:1 7:1 8:0 9:0 10:0 11:0 12:0 13:0 14:0 15:0 16:0 17:0 18:1 19:1 20:1 21:1 22:1 23:1 24:1 25:0 26:0 27:0 28:0 29:0 30:0 31:0 32:0 33:0 34:0 35:0 36:0 37:1 38:1 39:1 40:1 41:1 42:1 43:0 44:0 45:0 46:0 47:1 48:1 49:1 50:0 51:0 52:0 53:0 54:0 55:1 56:1 57:1 58:1 59:1 60:1 61:0 62:0 63:0 64:1 65:1 66:1 67:1 68:1 69:1 70:0 71:0 72:0 73:1 74:1 75:1 76:1 77:1 78:0 79:0 80:0 81:1 82:1 83:1 84:1 85:1 86:1 87:1 88:1 89:0 90:0 91:1 92:1 93:1 94:1 95:0 96:0 97:0 98:1 99:1 100:1 101:1 102:1 103:1 104:1 105:1 106:1 107:1 108:0 109:1 110:1 111:1 112:0 113:0 114:0 115:0 116:0 117:1 118:1 119:1 120:1 121:1 122:1 123:1 124:1 125:1 126:0 127:1 128:1 129:1 130:0 131:0 132:0 133:0 134:0 135:1 136:1 137:1 138:1 139:1 140:1 141:1 142:1 143:1 144:0 145:1 146:1 147:0 148:0 149:0 150:0 151:0 152:1 153:1 154:1 155:1 156:1 157:1 158:1 159:1 160:1 161:1 162:1 163:1 164:1 165:1 166:0 167:0 168:0 169:1 170:1 171:1 172:1 173:1 174:1 175:1 176:1 177:1 178:1 179:1 180:1 181:1 182:1 183:0 184:0 185:0 186:0 187:1 188:1 189:1 190:1 191:1 192:1 193:1 194:1 195:1 196:1 197:1 198:1 199:1 200:1 201:0 202:0 203:0 204:0 205:1 206:1 207:1 208:1 209:1 210:1 211:1 212:1 213:1 214:1 215:1 216:1 217:1 218:1 219:0 220:0 221:0 222:0 223:1 224:1 225:1 226:1 227:1 228:1 229:1 230:1 231:1 232:1 233:1 234:1 235:1 236:1 237:0 238:0 239:0 240:0 241:1 242:1 243:1 244:1 245:1 246:1 247:1 248:1 249:1 250:1 251:1 252:1 253:1 254:1 255:1 256:0 257:0 258:0 259:1 260:1 261:1 262:1 263:1 264:1 265:1 266:1 267:1 268:1 269:1 270:1 271:1 272:1 273:1 274:0 275:0 276:0 277:1 278:1 279:1 280:1 281:1 282:1 283:1 284:1 285:1 286:1 287:1 288:1 289:1 290:1 291:1 292:0 293:0 294:0 295:1 296:1 297:1 298:1 299:1 300:1 301:1 302:1 303:1 304:1 305:1 306:1 307:1 308:1 309:1 310:0 311:0 312:0 313:1 314:1 315:1 316:1 317:1 318:1 319:1 320:1 321:1 322:1 323:1 324:1 325:1 326:1 327:1 328:1 329:0 330:0 331:0 332:1 333:1 334:1 335:1 336:1 337:1 338:1 339:1 340:1 341:1 342:0 343:1 344:1 345:1 346:1 347:0 348:0 349:0 350:1 351:1 352:1 353:1 354:1 355:1 356:1 357:1 358:1 359:1 360:0 361:1 362:1 363:1 364:1 365:0 366:0 367:0 368:1 369:1 370:1 371:1 372:1 373:1 374:1 375:1 376:1 377:1 378:0 379:1 380:1 381:1 382:1 383:1 384:0 385:0 386:0 387:1 388:1 389:1 390:1 391:1 392:1 393:1 394:1 395:0 396:0 397:1 398:1 399:1 400:1 401:1 402:1 403:0 404:0 405:0 406:1 407:1 408:1 409:1 410:1 411:1 412:0 413:0 414:0 415:1 416:1 417:1 418:1 419:1 420:1 421:0 422:0 423:0 424:0 425:1 426:1 427:1 428:1 429:0 430:0 431:0 432:0 433:1 434:1 435:1 436:1 437:1 438:1 439:1 440:0 441:0 442:0 443:0 444:0 445:0 446:0 447:0 448:0 449:0 450:1 451:1 452:1 453:1 454:1 455:1 456:1 457:1 458:1 459:1 460:0 461:0 462:0 463:0 464:0 465:0 466:1 467:1 468:1 
0.1689304487513357 0.4178205105376733 0 0 0 0 0 0 0.07588776574677911 1:1 2:1 3:1 4:1 5:1 6:1 7:1 8:1 9:0 10:0 11:0 12:0 13:0 14:0 15:1 16:1 17:1 18:1 19:1 20:1 21:1 22:1 23:1 24:1 25:0 26:0 27:0 28:0 29:0 30:0 31:0 32:0 33:0 34:0 35:1 36:1 37:1 38:1 39:1 40:1 41:1 42:0 43:0 44:0 45:0 46:1 47:1 48:1 49:1 50:0 51:0 52:0 53:0 54:1 55:1 56:1 57:1 58:1 59:0 60:0 61:0 62:0 63:1 64:1 65:1 66:1 67:1 68:1 69:0 70:0 71:0 72:1 73:1 74:1 75:1 76:0 77:0 78:0 79:0 80:1 81:1 82:1 83:1 84:1 85:1 86:1 87:1 88:0 89:0 90:0 91:1 92:1 93:0 94:0 95:0 96:0 97:1 98:1 99:1 100:1 101:1 102:1 103:1 104:1 105:1 106:1 107:0 108:0 109:1 110:1 111:1 112:0 113:0 114:0 115:1 116:1 117:1 118:1 119:1 120:1 121:1 122:1 123:1 124:0 125:0 126:0 127:1 128:1 129:1 130:0 131:0 132:0 133:1 134:1 135:1 136:1 137:1 138:1 139:1 140:1 141:1 142:1 143:0 144:0 145:1 146:1 147:0 148:0 149:0 150:1 151:1 152:1 153:1 154:1 155:1 156:1 157:1 158:1 159:1 160:1 161:0 162:0 163:1 164:1 165:0 166:0 167:0 168:1 169:1 170:1 171:1 172:1 173:1 174:1 175:1 176:1 177:1 178:1 179:1 180:0 181:1 182:1 183:0 184:0 185:0 186:0 187:1 188:1 189:1 190:1 191:1 192:1 193:1 194:1 195:1 196:1 197:1 198:0 199:1 200:1 201:0 202:0 203:0 204:0 205:1 206:1 207:1 208:1 209:1 210:1 211:1 212:1 213:1 214:1 215:1 216:0 217:1 218:0 219:0 220:0 221:0 222:1 223:1 224:1 225:1 226:1 227:1 228:1 229:1 230:1 231:1 232:1 233:1 234:0 235:0 236:0 237:0 238:0 239:0 240:1 241:1 242:1 243:1 244:1 245:1 246:1 247:1 248:1 249:1 250:1 251:1 252:0 253:0 254:0 255:0 256:0 257:0 258:0 259:1 260:1 261:1 262:1 263:1 264:1 265:1 266:1 267:1 268:1 269:1 270:0 271:1 272:0 273:0 274:0 275:0 276:0 277:1 278:1 279:1 280:1 281:1 282:1 283:1 284:1 285:1 286:1 287:0 288:0 289:1 290:1 291:0 292:0 293:0 294:0 295:1 296:1 297:0 298:0 299:0 300:0 301:0 302:0 303:1 304:1 305:0 306:0 307:1 308:1 309:0 310:0 311:0 312:0 313:1 314:1 315:1 316:0 317:0 318:0 319:0 320:0 321:1 322:1 323:0 324:0 325:1 326:1 327:0 328:0 329:0 330:0 331:0 332:0 333:0 334:0 335:0 336:0 337:0 338:0 339:1 340:1 341:0 342:0 343:1 344:1 345:0 346:0 347:0 348:0 349:0 350:0 351:1 352:1 353:1 354:1 355:1 356:0 357:0 358:0 359:0 360:0 361:1 362:1 363:1 364:0 365:0 366:0 367:0 368:1 369:1 370:1 371:1 372:0 373:0 374:0 375:0 376:0 377:0 378:0 379:1 380:1 381:1 382:1 383:0 384:0 385:0 386:1 387:1 388:1 389:1 390:1 391:1 392:1 393:1 394:0 395:0 396:0 397:1 398:1 399:1 400:1 401:1 402:0 403:0 404:0 405:1 406:1 407:1 408:1 409:1 410:1 411:0 412:0 413:0 414:1 415:1 416:1 417:1 418:1 419:1 420:0 421:0 422:0 423:0 424:0 425:0 426:1 427:1 428:0 429:0 430:0 431:0 432:1 433:1 434:1 435:1 436:1 437:1 438:1 439:0 440:0 441:0 442:0 443:0 444:0 445:0 446:0 447:0 448:0 449:1 450:1 451:1 452:1 453:1 454:1 455:1 456:1 457:1 458:1 459:0 460:0 461:0 462:0 463:0 464:0 465:1 466:1 467:1 468:1 
0 0.09130143769140875 0.05844316692348061 0.1057077757617352 0.09008677140549365 0 0.1338360523002711 0 0 1:1 2:1 3:1 4:1 5:1 6:1 7:1 8:1 9:1 10:0 11:0 12:0 13:0 14:0 15:0 16:0 17:1 18:1 19:1 20:1 21:1 22:1 23:1 24:1 25:1 26:0 27:0 28:0 29:0 30:0 31:0 32:0 33:0 34:0 35:0 36:1 37:1 38:1 39:1 40:1 41:1 42:1 43:0 44:0 45:0 46:0 47:1 48:1 49:1 50:1 51:0 52:0 53:0 54:0 55:1 56:1 57:1 58:1 59:1 60:1 61:0 62:0 63:0 64:1 65:1 66:1 67:1 68:1 69:1 70:0 71:0 72:0 73:1 74:1 75:1 76:1 77:1 78:0 79:0 80:0 81:1 82:1 83:1 84:1 85:1 86:1 87:1 88:1 89:0 90:0 91:1 92:1 93:1 94:1 95:0 96:0 97:0 98:1 99:1 100:1 101:1 102:1 103:1 104:1 105:1 106:1 107:1 108:0 109:1 110:1 111:1 112:0 113:0 114:0 115:0 116:1 117:1 118:1 119:1 120:1 121:1 122:1 123:1 124:1 125:1 126:0 127:1 128:1 129:1 130:0 131:0 132:0 133:0 134:1 135:1 136:1 137:1 138:1 139:1 140:1 141:1 142:1 143:1 144:0 145:1 146:1 147:1 148:0 149:0 150:0 151:1 152:1 153:1 154:1 155:1 156:1 157:1 158:1 159:1 160:1 161:1 162:1 163:1 164:1 165:1 166:0 167:0 168:0 169:1 170:1 171:1 172:1 173:1 174:1 175:1 176:1 177:1 178:1 179:1 180:1 181:1 182:1 183:1 184:0 185:0 186:0 187:1 188:1 189:1 190:1 191:1 192:1 193:1 194:1 195:1 196:1 197:1 198:1 199:1 200:1 201:1 202:0 203:0 204:0 205:1 206:1 207:1 208:1 209:1 210:1 211:1 212:1 213:1 214:1 215:1 216:1 217:1 218:1 219:1 220:0 221:0 222:0 223:1 224:1 225:1 226:1 227:1 228:1 229:1 230:1 231:1 232:1 233:1 234:1 235:1 236:1 237:1 238:0 239:0 240:0 241:1 242:1 243:1 244:1 245:1 246:1 247:1 248:1 249:1 250:1 251:1 252:1 253:1 254:1 255:1 256:0 257:0 258:0 259:0 260:1 261:1 262:1 263:1 264:1 265:1 266:1 267:1 268:1 269:1 270:1 271:0 272:1 273:0 274:0 275:0 276:0 277:0 278:1 279:1 280:1 281:1 282:1 283:1 284:1 285:1 286:1 287:1 288:1 289:0 290:1 291:0 292:0 293:0 294:0 295:0 296:1 297:1 298:1 299:1 300:1 301:1 302:1 303:1 304:1 305:1 306:1 307:0 308:1 309:1 310:0 311:0 312:0 313:1 314:1 315:1 316:1 317:1 318:1 319:1 320:1 321:1 322:1 323:1 324:1 325:0 326:1 327:1 328:1 329:0 330:0 331:0 332:1 333:1 334:1 335:1 336:1 337:1 338:1 339:1 340:1 341:1 342:0 343:0 344:1 345:1 346:1 347:0 348:0 349:0 350:1 351:1 352:1 353:1 354:1 355:1 356:1 357:1 358:1 359:0 360:0 361:0 362:1 363:1 364:1 365:0 366:0 367:0 368:1 369:1 370:1 371:1 372:1 373:1 374:1 375:1 376:1 377:0 378:0 379:1 380:1 381:1 382:1 383:1 384:0 385:0 386:0 387:1 388:1 389:1 390:1 391:1 392:1 393:1 394:1 395:0 396:0 397:1 398:1 399:1 400:1 401:1 402:1 403:0 404:0 405:0 406:1 407:1 408:1 409:1 410:1 411:1 412:0 413:0 414:0 415:1 416:1 417:1 418:1 419:1 420:1 421:0 422:0 423:0 424:0 425:1 426:1 427:1 428:1 429:0 430:0 431:0 432:0 433:1 434:1 435:1 436:1 437:1 438:1 439:1 440:0 441:0 442:0 443:0 444:0 445:0 446:0 447:0 448:0 449:0 450:1 451:1 452:1 453:1 454:1 455:1 456:1 457:1 458:1 459:1 460:0 461:0 462:0 463:0 464:0 465:0 466:1 467:1 468:1 
0 0 0 0 0 0 0.1391054262968671 0 0 1:1 2:1 3:1 4:1 5:1 6:1 7:1 8:1 9:0 10:0 11:0 12:0 13:0 14:0 15:1 16:1 17:1 18:1 19:1 20:1 21:1 22:1 23:1 24:1 25:0 26:0 27:0 28:0 29:0 30:0 31:0 32:0 33:0 34:0 35:1 36:1 37:0 38:1 39:1 40:1 41:1 42:0 43:0 44:0 45:0 46:0 47:0 48:0 49:0 50:0 51:0 52:0 53:0 54:1 55:1 56:1 57:1 58:1 59:0 60:0 61:0 62:0 63:1 64:1 65:1 66:1 67:1 68:1 69:0 70:0 71:0 72:1 73:1 74:1 75:1 76:1 77:0 78:0 79:0 80:1 81:1 82:1 83:1 84:1 85:1 86:1 87:1 88:0 89:0 90:0 91:1 92:1 93:0 94:0 95:0 96:0 97:1 98:1 99:1 100:1 101:1 102:1 103:1 104:1 105:1 106:1 107:0 108:0 109:1 110:1 111:0 112:0 113:0 114:0 115:1 116:1 117:1 118:1 119:1 120:1 121:1 122:1 123:1 124:1 125:0 126:0 127:1 128:1 129:0 130:0 131:0 132:0 133:1 134:1 135:1 136:1 137:1 138:1 139:1 140:1 141:1 142:1 143:0 144:0 145:1 146:1 147:0 148:0 149:0 150:1 151:1 152:1 153:1 154:1 155:1 156:1 157:1 158:1 159:1 160:1 161:1 162:0 163:1 164:1 165:0 166:0 167:0 168:1 169:1 170:1 171:1 172:1 173:1 174:1 175:1 176:1 177:1 178:1 179:1 180:0 181:1 182:0 183:0 184:0 185:0 186:0 187:1 188:1 189:1 190:1 191:1 192:1 193:1 194:1 195:1 196:1 197:1 198:0 199:1 200:0 201:0 202:0 203:0 204:0 205:0 206:0 207:1 208:1 209:1 210:1 211:1 212:1 213:1 214:1 215:1 216:0 217:1 218:0 219:0 220:0 221:0 222:0 223:0 224:0 225:0 226:1 227:1 228:1 229:1 230:1 231:1 232:1 233:0 234:0 235:1 236:0 237:0 238:0 239:0 240:0 241:1 242:0 243:0 244:1 245:1 246:1 247:1 248:1 249:1 250:1 251:0 252:0 253:1 254:0 255:0 256:0 257:0 258:1 259:1 260:1 261:1 262:1 263:1 264:1 265:1 266:1 267:1 268:1 269:0 270:0 271:0 272:0 273:0 274:0 275:0 276:1 277:1 278:1 279:1 280:1 281:1 282:1 283:1 284:1 285:1 286:1 287:1 288:0 289:1 290:0 291:0 292:0 293:0 294:0 295:1 296:1 297:1 298:1 299:1 300:1 301:1 302:1 303:1 304:1 305:1 306:0 307:1 308:1 309:0 310:0 311:0 312:0 313:0 314:1 315:1 316:1 317:1 318:1 319:1 320:1 321:1 322:1 323:1 324:0 325:1 326:1 327:1 328:0 329:0 330:0 331:0 332:1 333:1 334:1 335:1 336:1 337:1 338:1 339:1 340:1 341:0 342:0 343:1 344:1 345:1 346:0 347:0 348:0 349:1 350:1 351:1 352:1 353:0 354:0 355:0 356:1 357:1 358:0 359:0 360:0 361:1 362:1 363:1 364:0 365:0 366:0 367:1 368:1 369:1 370:1 371:1 372:0 373:0 374:0 375:0 376:0 377:0 378:0 379:1 380:1 381:1 382:1 383:0 384:0 385:0 386:1 387:1 388:1 389:1 390:1 391:1 392:1 393:0 394:0 395:0 396:0 397:1 398:1 399:1 400:1 401:1 402:0 403:0 404:0 405:1 406:1 407:1 408:1 409:1 410:1 411:0 412:0 413:0 414:0 415:1 416:1 417:1 418:1 419:1 420:0 421:0 422:0 423:0 424:1 425:1 426:1 427:1 428:0 429:0 430:0 431:0 432:1 433:1 434:1 435:1 436:1 437:1 438:1 439:0 440:0 441:0 442:0 443:0 444:0 445:0 446:0 447:0 448:0 449:1 450:1 451:1 452:1 453:1 454:1 455:1 456:1 457:1 458:1 459:0 460:0 461:0 462:0 463:0 464:0 465:1 466:1 467:1 468:1 
0.1067937662239086 0 0 0.3797738158206198 0 0.06036209472465262 0.2801885871684781 0 0.07152612558446991 1:1 2:1 3:1 4:1 5:1 6:1 7:1 8:1 9:1 10:0 11:0 12:0 13:0 14:0 15:0 16:1 17:1 18:1 19:1 20:1 21:1 22:1 23:1 24:1 25:1 26:0 27:0 28:0 29:0 30:0 31:0 32:0 33:0 34:0 35:0 36:1 37:1 38:1 39:1 40:1 41:1 42:1 43:0 44:0 45:0 46:0 47:0 48:0 49:0 50:0 51:0 52:0 53:0 54:0 55:1 56:1 57:1 58:1 59:1 60:0 61:0 62:0 63:0 64:0 65:1 66:1 67:1 68:1 69:1 70:0 71:0 72:0 73:1 74:1 75:1 76:1 77:0 78:0 79:0 80:0 81:1 82:1 83:1 84:1 85:1 86:1 87:1 88:1 89:0 90:0 91:1 92:1 93:1 94:0 95:0 96:0 97:0 98:1 99:1 100:1 101:1 102:1 103:1 104:1 105:1 106:1 107:1 108:0 109:1 110:1 111:1 112:1 113:0 114:0 115:0 116:1 117:1 118:1 119:1 120:1 121:1 122:1 123:1 124:1 125:1 126:0 127:1 128:1 129:1 130:1 131:0 132:0 133:0 134:0 135:1 136:1 137:1 138:1 139:1 140:1 141:1 142:1 143:1 144:0 145:1 146:1 147:1 148:0 149:0 150:0 151:0 152:1 153:1 154:1 155:1 156:1 157:1 158:1 159:1 160:1 161:1 162:1 163:1 164:1 165:1 166:0 167:0 168:0 169:0 170:1 171:1 172:1 173:1 174:1 175:1 176:1 177:1 178:1 179:1 180:1 181:1 182:1 183:0 184:0 185:0 186:0 187:1 188:1 189:1 190:1 191:1 192:1 193:1 194:1 195:1 196:1 197:1 198:1 199:1 200:1 201:0 202:0 203:0 204:0 205:1 206:1 207:1 208:1 209:1 210:1 211:1 212:1 213:1 214:1 215:1 216:1 217:1 218:1 219:1 220:0 221:0 222:0 223:1 224:1 225:1 226:1 227:1 228:1 229:1 230:1 231:1 232:1 233:1 234:1 235:1 236:1 237:1 238:0 239:0 240:0 241:1 242:1 243:1 244:1 245:1 246:1 247:1 248:1 249:1 250:1 251:1 252:1 253:1 254:1 255:0 256:0 257:0 258:0 259:1 260:1 261:1 262:1 263:1 264:1 265:1 266:1 267:1 268:1 269:1 270:1 271:1 272:1 273:0 274:0 275:0 276:0 277:1 278:1 279:1 280:1 281:1 282:1 283:1 284:1 285:1 286:1 287:1 288:1 289:1 290:1 291:0 292:0 293:0 294:0 295:1 296:1 297:1 298:1 299:1 300:1 301:1 302:1 303:1 304:1 305:1 306:1 307:1 308:1 309:1 310:0 311:0 312:0 313:1 314:1 315:1 316:1 317:1 318:1 319:1 320:1 321:1 322:1 323:1 324:1 325:1 326:1 327:1 328:1 329:0 330:0 331:0 332:1 333:1 334:1 335:1 336:1 337:1 338:1 339:1 340:1 341:1 342:0 343:1 344:1 345:1 346:1 347:0 348:0 349:0 350:1 351:1 352:1 353:1 354:1 355:1 356:1 357:1 358:1 359:1 360:0 361:1 362:1 363:1 364:1 365:0 366:0 367:0 368:1 369:1 370:1 371:1 372:1 373:1 374:1 375:1 376:1 377:1 378:0 379:1 380:1 381:1 382:1 383:1 384:0 385:0 386:0 387:1 388:1 389:1 390:1 391:1 392:1 393:1 394:1 395:0 396:0 397:1 398:1 399:1 400:1 401:1 402:1 403:0 404:0 405:0 406:1 407:1 408:1 409:1 410:1 411:1 412:0 413:0 414:0 415:1 416:1 417:1 418:1 419:1 420:1 421:0 422:0 423:0 424:0 425:1 426:1 427:1 428:1 429:0 430:0 431:0 432:0 433:1 434:1 435:1 436:1 437:1 438:1 439:1 440:0 441:0 442:0 443:0 444:0 445:0 446:0 447:0 448:0 449:0 450:1 451:1 452:1 453:1 454:1 455:1 456:1 457:1 458:1 459:1 460:0 461:0 462:0 463:0 464:0 465:0 466:1 467:1 468:1 
0.08885761305518282 0 0.3292314552214896 0.105158464476707 0.06898452388106785 0.2334104040606903 0.3092948574428141 0.3516839810804242 0.216310682330916 1:1 2:1 3:1 4:1 5:1 6:1 7:1 8:1 9:1 10:0 11:0 12:0 13:0 14:0 15:0 16:1 17:1 18:1 19:1 20:1 21:1 22:1 23:1 24:1 25:1 26:0 27:0 28:0 29:0 30:0 31:0 32:0 33:0 34:0 35:0 36:1 37:1 38:1 39:1 40:1 41:1 42:1 43:0 44:0 45:0 46:0 47:1 48:1 49:1 50:1 51:0 52:0 53:0 54:0 55:1 56:1 57:1 58:1 59:1 60:1 61:0 62:0 63:0 64:1 65:1 66:1 67:1 68:1 69:1 70:0 71:0 72:0 73:1 74:1 75:1 76:1 77:1 78:0 79:0 80:0 81:1 82:1 83:1 84:1 85:1 86:1 87:1 88:1 89:0 90:0 91:1 92:1 93:1 94:1 95:0 96:0 97:0 98:1 99:1 100:1 101:1 102:1 103:1 104:1 105:1 106:1 107:1 108:0 109:1 110:1 111:1 112:1 113:0 114:0 115:0 116:1 117:1 118:1 119:1 120:1 121:1 122:1 123:1 124:1 125:1 126:0 127:1 128:1 129:1 130:1 131:0 132:0 133:0 134:1 135:1 136:1 137:1 138:1 139:1 140:1 141:1 142:1 143:1 144:0 145:1 146:1 147:1 148:0 149:0 150:0 151:1 152:1 153:1 154:1 155:1 156:1 157:1 158:1 159:1 160:1 161:1 162:1 163:1 164:1 165:1 166:0 167:0 168:0 169:1 170:1 171:1 172:1 173:1 174:1 175:1 176:1 177:1 178:1 179:1 180:1 181:1 182:1 183:1 184:0 185:0 186:0 187:1 188:1 189:1 190:1 191:1 192:1 193:1 194:1 195:1 196:1 197:1 198:1 199:1 200:1 201:1 202:0 203:0 204:0 205:1 206:1 207:1 208:1 209:1 210:1 211:1 212:1 213:1 214:1 215:1 216:1 217:1 218:1 219:1 220:0 221:0 222:0 223:1 224:1 225:1 226:1 227:1 228:1 229:1 230:1 231:1 232:1 233:1 234:1 235:1 236:1 237:1 238:0 239:0 240:0 241:1 242:1 243:1 244:1 245:1 246:1 247:1 248:1 249:1 250:1 251:1 252:1 253:1 254:1 255:1 256:0 257:0 258:0 259:1 260:1 261:1 262:1 263:1 264:1 265:1 266:1 267:1 268:1 269:1 270:1 271:1 272:1 273:1 274:0 275:0 276:0 277:1 278:1 279:1 280:1 281:1 282:1 283:1 284:1 285:1 286:1 287:1 288:1 289:1 290:1 291:1 292:0 293:0 294:0 295:1 296:1 297:1 298:1 299:1 300:1 301:1 302:1 303:1 304:1 305:1 306:1 307:1 308:1 309:1 310:0 311:0 312:0 313:1 314:1 315:1 316:1 317:1 318:1 319:1 320:1 321:1 322:1 323:1 324:1 325:1 326:1 327:1 328:1 329:0 330:0 331:0 332:1 333:1 334:1 335:1 336:1 337:1 338:1 339:1 340:1 341:1 342:0 343:1 344:1 345:1 346:1 347:0 348:0 349:0 350:1 351:1 352:1 353:1 354:1 355:1 356:1 357:1 358:1 359:1 360:0 361:0 362:0 363:0 364:0 365:0 366:0 367:0 368:0 369:1 370:1 371:1 372:1 373:1 374:1 375:1 376:1 377:0 378:0 379:0 380:0 381:0 382:0 383:0 384:0 385:0 386:0 387:0 388:1 389:1 390:1 391:1 392:1 393:1 394:1 395:0 396:0 397:1 398:1 399:1 400:1 401:0 402:0 403:0 404:0 405:0 406:0 407:0 408:0 409:1 410:1 411:0 412:0 413:0 414:0 415:1 416:1 417:1 418:1 419:1 420:1 421:0 422:0 423:0 424:0 425:0 426:0 427:1 428:1 429:0 430:0 431:0 432:0 433:1 434:1 435:1 436:1 437:1 438:1 439:1 440:0 441:0 442:0 443:0 444:0 445:0 446:0 447:0 448:0 449:0 450:1 451:1 452:1 453:1 454:1 455:1 456:1 457:1 458:1 459:1 460:0 461:0 462:0 463:0 464:0 465:0 466:0 467:0 468:1 
0 0.233720533088285 0.1888380836051479 0.5 0.1329498465805553 0 0.5 0 0 1:1 2:1 3:1 4:1 5:1 6:1 7:1 8:0 9:0 10:0 11:0 12:0 13:0 14:1 15:1 16:1 17:1 18:1 19:1 20:1 21:1 22:1 23:1 24:0 25:0 26:0 27:0 28:0 29:0 30:0 31:0 32:0 33:0 34:0 35:1 36:1 37:1 38:1 39:1 40:1 41:0 42:0 43:0 44:0 45:1 46:1 47:1 48:1 49:0 50:0 51:0 52:0 53:0 54:1 55:1 56:1 57:1 58:0 59:0 60:0 61:0 62:1 63:1 64:1 65:1 66:1 67:1 68:0 69:0 70:0 71:1 72:1 73:1 74:1 75:1 76:0 77:0 78:0 79:1 80:1 81:1 82:1 83:1 84:1 85:1 86:1 87:0 88:0 89:0 90:1 91:1 92:1 93:0 94:0 95:0 96:1 97:1 98:1 99:1 100:1 101:1 102:1 103:1 104:1 105:1 106:0 107:0 108:0 109:1 110:1 111:0 112:0 113:0 114:1 115:1 116:1 117:1 118:1 119:1 120:1 121:1 122:1 123:1 124:0 125:0 126:0 127:1 128:1 129:0 130:0 131:0 132:1 133:1 134:1 135:1 136:1 137:1 138:1 139:1 140:1 141:1 142:0 143:0 144:0 145:1 146:0 147:0 148:0 149:1 150:1 151:1 152:1 153:1 154:1 155:1 156:1 157:1 158:1 159:1 160:1 161:0 162:0 163:0 164:0 165:0 166:0 167:0 168:1 169:1 170:1 171:1 172:1 173:1 174:1 175:1 176:1 177:1 178:1 179:0 180:0 181:0 182:0 183:0 184:0 185:0 186:0 187:0 188:0 189:0 190:0 191:0 192:1 193:1 194:1 195:1 196:1 197:0 198:0 199:0 200:0 201:0 202:0 203:0 204:0 205:0 206:0 207:0 208:0 209:0 210:0 211:0 212:0 213:1 214:0 215:0 216:0 217:0 218:0 219:0 220:0 221:0 222:1 223:1 224:0 225:0 226:0 227:0 228:1 229:1 230:1 231:1 232:0 233:0 234:0 235:1 236:0 237:0 238:0 239:1 240:1 241:1 242:1 243:1 244:1 245:1 246:1 247:1 248:1 249:1 250:0 251:0 252:0 253:1 254:0 255:0 256:0 257:1 258:1 259:1 260:1 261:1 262:1 263:1 264:1 265:1 266:1 267:1 268:1 269:0 270:0 271:1 272:0 273:0 274:0 275:1 276:1 277:1 278:1 279:1 280:1 281:1 282:1 283:1 284:1 285:1 286:1 287:0 288:0 289:1 290:0 291:0 292:0 293:1 294:1 295:1 296:1 297:1 298:1 299:1 300:1 301:1 302:1 303:1 304:1 305:0 306:0 307:1 308:0 309:0 310:0 311:1 312:1 313:1 314:1 315:1 316:1 317:1 318:1 319:1 320:1 321:1 322:1 323:0 324:0 325:1 326:1 327:0 328:0 329:0 330:1 331:1 332:1 333:1 334:1 335:1 336:1 337:1 338:1 339:1 340:0 341:0 342:0 343:1 344:1 345:0 346:0 347:0 348:1 349:1 350:1 351:1 352:1 353:1 354:1 355:1 356:1 357:1 358:0 359:0 360:0 361:1 362:1 363:0 364:0 365:0 366:1 367:1 368:1 369:1 370:1 371:1 372:1 373:1 374:1 375:1 376:0 377:0 378:0 379:1 380:1 381:1 382:0 383:0 384:0 385:1 386:1 387:1 388:1 389:1 390:1 391:1 392:1 393:0 394:0 395:0 396:1 397:1 398:1 399:1 400:1 401:0 402:0 403:0 404:1 405:1 406:1 407:1 408:1 409:1 410:0 411:0 412:0 413:1 414:1 415:1 416:1 417:1 418:1 419:0 420:0 421:0 422:0 423:1 424:1 425:1 426:1 427:0 428:0 429:0 430:0 431:1 432:1 433:1 434:1 435:1 436:1 437:1 438:0 439:0 440:0 441:0 442:0 443:0 444:0 445:0 446:0 447:0 448:1 449:1 450:1 451:1 452:1 453:1 454:1 455:1 456:1 457:1 458:0 459:0 460:0 461:0 462:0 463:0 464:1 465:1 466:1 467:1 468:1 
0 0.2884780275884931 0 0 0 0.009517179288449494 0 0.3703851701268566 0 1:1 2:1 3:1 4:1 5:1 6:1 7:1 8:1 9:0 10:0 11:0 12:0 13:0 14:0 15:1 16:1 17:1 18:1 19:1 20:1 21:1 22:1 23:1 24:1 25:0 26:0 27:0 28:0 29:0 30:0 31:0 32:0 33:0 34:0 35:1 36:1 37:1 38:1 39:1 40:1 41:1 42:0 43:0 44:0 45:0 46:1 47:1 48:1 49:0 50:0 51:0 52:0 53:0 54:1 55:1 56:1 57:1 58:1 59:0 60:0 61:0 62:0 63:0 64:1 65:1 66:1 67:0 68:0 69:0 70:0 71:0 72:0 73:1 74:1 75:1 76:0 77:0 78:0 79:0 80:1 81:1 82:1 83:1 84:1 85:1 86:1 87:1 88:0 89:0 90:0 91:1 92:1 93:0 94:0 95:0 96:0 97:0 98:1 99:1 100:1 101:1 102:1 103:1 104:1 105:0 106:0 107:0 108:0 109:1 110:1 111:1 112:0 113:0 114:0 115:1 116:1 117:1 118:1 119:1 120:1 121:1 122:1 123:1 124:0 125:0 126:0 127:1 128:1 129:0 130:0 131:0 132:0 133:0 134:1 135:1 136:1 137:1 138:1 139:1 140:1 141:1 142:1 143:0 144:0 145:1 146:1 147:0 148:0 149:0 150:0 151:1 152:1 153:1 154:1 155:1 156:1 157:1 158:1 159:1 160:1 161:1 162:0 163:0 164:0 165:0 166:0 167:0 168:0 169:1 170:1 171:1 172:1 173:1 174:1 175:1 176:1 177:1 178:1 179:1 180:0 181:0 182:0 183:0 184:0 185:0 186:1 187:1 188:1 189:1 190:1 191:1 192:1 193:1 194:1 195:1 196:1 197:1 198:0 199:1 200:0 201:0 202:0 203:0 204:1 205:1 206:1 207:1 208:1 209:1 210:1 211:1 212:1 213:1 214:1 215:1 216:0 217:1 218:1 219:0 220:0 221:0 222:1 223:1 224:1 225:1 226:1 227:1 228:1 229:1 230:1 231:1 232:1 233:0 234:0 235:1 236:1 237:0 238:0 239:0 240:1 241:1 242:1 243:1 244:1 245:1 246:1 247:1 248:1 249:1 250:1 251:0 252:0 253:1 254:1 255:0 256:0 257:0 258:1 259:1 260:1 261:1 262:1 263:1 264:1 265:1 266:1 267:1 268:1 269:1 270:0 271:1 272:1 273:0 274:0 275:0 276:1 277:1 278:1 279:1 280:1 281:1 282:1 283:1 284:1 285:1 286:1 287:1 288:0 289:1 290:1 291:0 292:0 293:0 294:1 295:1 296:1 297:1 298:1 299:1 300:1 301:1 302:1 303:1 304:1 305:0 306:0 307:1 308:1 309:0 310:0 311:0 312:0 313:1 314:1 315:1 316:1 317:1 318:1 319:1 320:1 321:1 322:1 323:0 324:0 325:1 326:1 327:1 328:0 329:0 330:0 331:0 332:0 333:0 334:1 335:1 336:1 337:1 338:1 339:1 340:0 341:0 342:0 343:1 344:1 345:1 346:0 347:0 348:0 349:0 350:0 351:1 352:1 353:1 354:1 355:1 356:1 357:1 358:1 359:0 360:0 361:1 362:1 363:0 364:0 365:0 366:0 367:0 368:1 369:1 370:1 371:1 372:1 373:1 374:1 375:1 376:1 377:0 378:0 379:0 380:0 381:0 382:0 383:0 384:0 385:0 386:1 387:1 388:1 389:1 390:1 391:1 392:1 393:1 394:0 395:0 396:0 397:0 398:0 399:0 400:0 401:0 402:0 403:0 404:0 405:0 406:0 407:1 408:1 409:1 410:0 411:0 412:0 413:0 414:0 415:0 416:0 417:0 418:0 419:0 420:0 421:0 422:0 423:0 424:0 425:0 426:0 427:0 428:0 429:0 430:0 431:0 432:1 433:0 434:0 435:0 436:0 437:0 438:0 439:0 440:0 441:0 442:0 443:0 444:0 445:0 446:0 447:0 448:0 449:1 450:1 451:0 452:0 453:0 454:0 455:0 456:1 457:1 458:1 459:0 460:0 461:0 462:0 463:0 464:0 465:1 466:1 467:1 468:1 
0.1500884131453014 0.4907990297124323 0.1855083291009054 0.2330871325473625 0.2986274412647449 0.1281323841034519 0.06695800216594706 0.5 0.2994216050490063 1:1 2:1 3:1 4:1 5:1 6:1 7:1 8:1 9:1 10:0 11:0 12:0 13:0 14:0 15:0 16:1 17:1 18:1 19:1 20:1 21:1 22:1 23:1 24:1 25:1 26:0 27:0 28:0 29:0 30:0 31:0 32:0 33:0 34:0 35:0 36:1 37:1 38:1 39:1 40:1 41:1 42:1 43:0 44:0 45:0 46:0 47:1 48:1 49:1 50:1 51:0 52:0 53:0 54:0 55:1 56:1 57:1 58:1 59:1 60:1 61:0 62:0 63:0 64:1 65:1 66:1 67:1 68:1 69:1 70:0 71:0 72:0 73:1 74:1 75:1 76:1 77:1 78:0 79:0 80:0 81:1 82:1 83:1 84:1 85:1 86:1 87:1 88:1 89:0 90:0 91:1 92:1 93:1 94:1 95:0 96:0 97:0 98:1 99:1 100:1 101:1 102:1 103:1 104:1 105:1 106:1 107:1 108:0 109:1 110:1 111:1 112:1 113:0 114:0 115:0 116:1 117:1 118:1 119:1 120:1 121:1 122:1 123:1 124:1 125:1 126:0 127:1 128:1 129:1 130:1 131:0 132:0 133:0 134:1 135:1 136:1 137:1 138:1 139:1 140:1 141:1 142:1 143:1 144:0 145:1 146:1 147:1 148:0 149:0 150:0 151:1 152:1 153:1 154:1 155:1 156:1 157:1 158:1 159:1 160:1 161:1 162:1 163:1 164:1 165:1 166:0 167:0 168:0 169:1 170:1 171:1 172:1 173:1 174:1 175:1 176:1 177:1 178:1 179:1 180:1 181:1 182:1 183:1 184:0 185:0 186:0 187:1 188:1 189:1 190:1 191:1 192:1 193:1 194:1 195:1 196:1 197:1 198:1 199:1 200:1 201:1 202:0 203:0 204:0 205:1 206:1 207:1 208:1 209:1 210:1 211:1 212:1 213:1 214:1 215:1 216:1 217:1 218:1 219:1 220:0 221:0 222:0 223:1 224:1 225:1 226:1 227:1 228:1 229:1 230:1 231:1 232:1 233:1 234:1 235:1 236:1 237:1 238:0 239:0 240:0 241:1 242:1 243:1 244:1 245:1 246:1 247:1 248:1 249:1 250:1 251:1 252:1 253:1 254:1 255:1 256:0 257:0 258:0 259:1 260:1 261:1 262:1 263:1 264:1 265:1 266:1 267:1 268:1 269:1 270:1 271:1 272:1 273:1 274:0 275:0 276:0 277:1 278:1 279:1 280:1 281:1 282:1 283:1 284:1 285:1 286:1 287:1 288:1 289:1 290:1 291:1 292:0 293:0 294:0 295:1 296:1 297:1 298:1 299:1 300:1 301:1 302:1 303:1 304:1 305:1 306:1 307:1 308:1 309:1 310:0 311:0 312:0 313:1 314:1 315:1 316:1 317:1 318:1 319:1 320:1 321:1 322:1 323:1 324:1 325:1 326:1 327:1 328:1 329:0 330:0 331:0 332:1 333:1 334:1 335:1 336:1 337:1 338:1 339:1 340:1 341:1 342:0 343:1 344:1 345:1 346:1 347:0 348:0 349:0 350:1 351:1 352:1 353:1 354:1 355:1 356:1 357:1 358:1 359:1 360:0 361:1 362:1 363:1 364:1 365:0 366:0 367:0 368:0 369:1 370:1 371:1 372:1 373:1 374:1 375:1 376:1 377:1 378:0 379:0 380:0 381:1 382:1 383:1 384:0 385:0 386:0 387:1 388:1 389:1 390:1 391:1 392:1 393:1 394:1 395:0 396:0 397:0 398:0 399:0 400:0 401:1 402:0 403:0 404:0 405:0 406:1 407:1 408:1 409:1 410:1 411:1 412:0 413:0 414:0 415:0 416:0 417:0 418:1 419:1 420:1 421:0 422:0 423:0 424:0 425:0 426:0 427:0 428:0 429:0 430:0 431:0 432:0 433:1 434:1 435:1 436:1 437:1 438:1 439:1 440:0 441:0 442:0 443:0 444:0 445:0 446:0 447:0 448:0 449:0 450:1 451:1 452:1 453:1 454:1 455:1 456:1 457:1 458:1 459:0 460:0 461:0 462:0 463:0 464:0 465:0 466:0 467:1 468:1 
